{"learner":{"attributes":{"best_iteration":"398","best_score":"0.23041794107621918","scikit_learn":"{\"_estimator_type\": \"classifier\"}"},"feature_names":[],"feature_types":[],"gradient_booster":{"model":{"cats":{"enc":[],"feature_segments":[],"sorted_idx":[]},"gbtree_model_param":{"num_parallel_tree":"1","num_trees":"1200"},"iteration_indptr":[0,3,6,9,12,15,18,21,24,27,30,33,36,39,42,45,48,51,54,57,60,63,66,69,72,75,78,81,84,87,90,93,96,99,102,105,108,111,114,117,120,123,126,129,132,135,138,141,144,147,150,153,156,159,162,165,168,171,174,177,180,183,186,189,192,195,198,201,204,207,210,213,216,219,222,225,228,231,234,237,240,243,246,249,252,255,258,261,264,267,270,273,276,279,282,285,288,291,294,297,300,303,306,309,312,315,318,321,324,327,330,333,336,339,342,345,348,351,354,357,360,363,366,369,372,375,378,381,384,387,390,393,396,399,402,405,408,411,414,417,420,423,426,429,432,435,438,441,444,447,450,453,456,459,462,465,468,471,474,477,480,483,486,489,492,495,498,501,504,507,510,513,516,519,522,525,528,531,534,537,540,543,546,549,552,555,558,561,564,567,570,573,576,579,582,585,588,591,594,597,600,603,606,609,612,615,618,621,624,627,630,633,636,639,642,645,648,651,654,657,660,663,666,669,672,675,678,681,684,687,690,693,696,699,702,705,708,711,714,717,720,723,726,729,732,735,738,741,744,747,750,753,756,759,762,765,768,771,774,777,780,783,786,789,792,795,798,801,804,807,810,813,816,819,822,825,828,831,834,837,840,843,846,849,852,855,858,861,864,867,870,873,876,879,882,885,888,891,894,897,900,903,906,909,912,915,918,921,924,927,930,933,936,939,942,945,948,951,954,957,960,963,966,969,972,975,978,981,984,987,990,993,996,999,1002,1005,1008,1011,1014,1017,1020,1023,1026,1029,1032,1035,1038,1041,1044,1047,1050,1053,1056,1059,1062,1065,1068,1071,1074,1077,1080,1083,1086,1089,1092,1095,1098,1101,1104,1107,1110,1113,1116,1119,1122,1125,1128,1131,1134,1137,1140,1143,1146,1149,1152,1155,1158,1161,1164,1167,1170,1173,1176,1179,1182,1185,1188,1191,1194,1197,1200],"tree_info":[0,1,2,0,1,2,0,1,2,0,1,2,0,1,2,0,1,2,0,1,2,0,1,2,0,1,2,0,1,2,0,1,2,0,1,2,0,1,2,0,1,2,0,1,2,0,1,2,0,1,2,0,1,2,0,1,2,0,1,2,0,1,2,0,1,2,0,1,2,0,1,2,0,1,2,0,1,2,0,1,2,0,1,2,0,1,2,0,1,2,0,1,2,0,1,2,0,1,2,0,1,2,0,1,2,0,1,2,0,1,2,0,1,2,0,1,2,0,1,2,0,1,2,0,1,2,0,1,2,0,1,2,0,1,2,0,1,2,0,1,2,0,1,2,0,1,2,0,1,2,0,1,2,0,1,2,0,1,2,0,1,2,0,1,2,0,1,2,0,1,2,0,1,2,0,1,2,0,1,2,0,1,2,0,1,2,0,1,2,0,1,2,0,1,2,0,1,2,0,1,2,0,1,2,0,1,2,0,1,2,0,1,2,0,1,2,0,1,2,0,1,2,0,1,2,0,1,2,0,1,2,0,1,2,0,1,2,0,1,2,0,1,2,0,1,2,0,1,2,0,1,2,0,1,2,0,1,2,0,1,2,0,1,2,0,1,2,0,1,2,0,1,2,0,1,2,0,1,2,0,1,2,0,1,2,0,1,2,0,1,2,0,1,2,0,1,2,0,1,2,0,1,2,0,1,2,0,1,2,0,1,2,0,1,2,0,1,2,0,1,2,0,1,2,0,1,2,0,1,2,0,1,2,0,1,2,0,1,2,0,1,2,0,1,2,0,1,2,0,1,2,0,1,2,0,1,2,0,1,2,0,1,2,0,1,2,0,1,2,0,1,2,0,1,2,0,1,2,0,1,2,0,1,2,0,1,2,0,1,2,0,1,2,0,1,2,0,1,2,0,1,2,0,1,2,0,1,2,0,1,2,0,1,2,0,1,2,0,1,2,0,1,2,0,1,2,0,1,2,0,1,2,0,1,2,0,1,2,0,1,2,0,1,2,0,1,2,0,1,2,0,1,2,0,1,2,0,1,2,0,1,2,0,1,2,0,1,2,0,1,2,0,1,2,0,1,2,0,1,2,0,1,2,0,1,2,0,1,2,0,1,2,0,1,2,0,1,2,0,1,2,0,1,2,0,1,2,0,1,2,0,1,2,0,1,2,0,1,2,0,1,2,0,1,2,0,1,2,0,1,2,0,1,2,0,1,2,0,1,2,0,1,2,0,1,2,0,1,2,0,1,2,0,1,2,0,1,2,0,1,2,0,1,2,0,1,2,0,1,2,0,1,2,0,1,2,0,1,2,0,1,2,0,1,2,0,1,2,0,1,2,0,1,2,0,1,2,0,1,2,0,1,2,0,1,2,0,1,2,0,1,2,0,1,2,0,1,2,0,1,2,0,1,2,0,1,2,0,1,2,0,1,2,0,1,2,0,1,2,0,1,2,0,1,2,0,1,2,0,1,2,0,1,2,0,1,2,0,1,2,0,1,2,0,1,2,0,1,2,0,1,2,0,1,2,0,1,2,0,1,2,0,1,2,0,1,2,0,1,2,0,1,2,0,1,2,0,1,2,0,1,2,0,1,2,0,1,2,0,1,2,0,1,2,0,1,2,0,1,2,0,1,2,0,1,2,0,1,2,0,1,2,0,1,2,0,1,2,0,1,2,0,1,2,0,1,2,0,1,2,0,1,2,0,1,2,0,1,2,0,1,2,0,1,2,0,1,2,0,1,2,0,1,2,0,1,2,0,1,2,0,1,2,0,1,2,0,1,2,0,1,2,0,1,2,0,1,2,0,1,2,0,1,2,0,1,2,0,1,2,0,1,2,0,1,2,0,1,2,0,1,2,0,1,2,0,1,2,0,1,2,0,1,2,0,1,2,0,1,2,0,1,2,0,1,2,0,1,2,0,1,2,0,1,2,0,1,2,0,1,2,0,1,2,0,1,2,0,1,2,0,1,2,0,1,2,0,1,2,0,1,2,0,1,2,0,1,2,0,1,2,0,1,2,0,1,2,0,1,2,0,1,2,0,1,2,0,1,2,0,1,2,0,1,2,0,1,2,0,1,2,0,1,2,0,1,2,0,1,2,0,1,2,0,1,2,0,1,2,0,1,2,0,1,2,0,1,2,0,1,2,0,1,2,0,1,2,0,1,2,0,1,2,0,1,2,0,1,2,0,1,2,0,1,2,0,1,2,0,1,2,0,1,2,0,1,2,0,1,2,0,1,2,0,1,2,0,1,2,0,1,2,0,1,2,0,1,2,0,1,2,0,1,2,0,1,2,0,1,2,0,1,2,0,1,2,0,1,2,0,1,2,0,1,2,0,1,2,0,1,2,0,1,2,0,1,2,0,1,2,0,1,2,0,1,2,0,1,2,0,1,2,0,1,2,0,1,2,0,1,2,0,1,2,0,1,2,0,1,2,0,1,2,0,1,2,0,1,2,0,1,2,0,1,2,0,1,2,0,1,2,0,1,2,0,1,2,0,1,2,0,1,2,0,1,2,0,1,2,0,1,2,0,1,2,0,1,2,0,1,2,0,1,2,0,1,2,0,1,2,0,1,2,0,1,2,0,1,2,0,1,2,0,1,2,0,1,2,0,1,2,0,1,2,0,1,2,0,1,2,0,1,2,0,1,2,0,1,2,0,1,2,0,1,2,0,1,2,0,1,2,0,1,2,0,1,2,0,1,2],"trees":[{"base_weights":[-5.9160152E-3,-2.853982E-1,8.481811E-1,-4.7531483E-1,4.0855488E-1,1.1730456E0,1.4323564E-2,1.3665357E-1,-6.160708E-1,9.3456393E-1,-3.8648912E-1,1.2749156E0,-4.3957224E-1,7.8394157E-1,-4.0722898E-1,-4.779429E-1,7.073482E-1,-6.484298E-1,4.7744676E-1,1.2360538E0,1.8260866E-1,-5.6852466E-1,6.883435E-1,1.3476813E0,-0E0,-2.530122E-3,-2.9083973E-2,-2.636364E-2,1.1097345E0,-6.5858275E-1,8.0719423E-1,1.2331287E-2,-3.1136675E-2,-1.8768476E-2,4.8636958E-2,-1.4653121E-2,-3.643104E-2,-2.1219514E-2,5.9784174E-2,3.8931281E-3,6.756677E-2,-2.367273E-2,4.6851065E-2,-3.4023955E-2,2.1588784E-2,5.5233646E-2,-2.530122E-3,6.96961E-2,1.8260852E-3,-2.7913047E-2,3.8674697E-2,6.7526504E-2,-2.530122E-3,-2.530122E-3,-3.559586E-2,1.6987951E-2,4.9518075E-2],"categories":[],"categories_nodes":[],"categories_segments":[],"categories_sizes":[],"default_left":[0,0,0,0,0,0,0,0,0,0,0,0,0,0,0,0,0,0,0,0,0,0,0,0,0,0,0,0,0,0,0,0,0,0,0,0,0,0,0,0,0,0,0,0,0,0,0,0,0,0,0,0,0,0,0,0,0],"id":0,"left_children":[1,3,5,7,9,11,13,15,17,19,21,23,25,27,29,31,33,35,37,39,41,43,45,47,49,-1,-1,-1,51,53,55,-1,-1,-1,-1,-1,-1,-1,-1,-1,-1,-1,-1,-1,-1,-1,-1,-1,-1,-1,-1,-1,-1,-1,-1,-1,-1],"loss_changes":[2.1146783E2,8.8299225E1,5.9015594E1,4.540158E1,6.0887154E1,2.6724838E1,2.090183E1,3.535142E1,1.5600769E1,1.930603E1,1.1999266E1,1.3745438E1,4.6687007E-1,1.0689987E1,1.3450415E1,5.3678093E0,1.5597195E1,1.1424484E1,9.29479E0,7.969948E0,1.3992764E1,6.1583214E0,2.975151E0,8.278717E0,4.7499256E0,0E0,0E0,0E0,5.49461E0,1.0136366E0,2.3429394E-2,0E0,0E0,0E0,0E0,0E0,0E0,0E0,0E0,0E0,0E0,0E0,0E0,0E0,0E0,0E0,0E0,0E0,0E0,0E0,0E0,0E0,0E0,0E0,0E0,0E0,0E0],"parents":[2147483647,0,0,1,1,2,2,3,3,4,4,5,5,6,6,7,7,8,8,9,9,10,10,11,11,12,12,13,13,14,14,15,15,16,16,17,17,18,18,19,19,20,20,21,21,22,22,23,23,24,24,28,28,29,29,30,30],"right_children":[2,4,6,8,10,12,14,16,18,20,22,24,26,28,30,32,34,36,38,40,42,44,46,48,50,-1,-1,-1,52,54,56,-1,-1,-1,-1,-1,-1,-1,-1,-1,-1,-1,-1,-1,-1,-1,-1,-1,-1,-1,-1,-1,-1,-1,-1,-1,-1],"split_conditions":[5.110273E-1,-1.9344018E-1,7.482993E-2,-2.0470561E-1,5.0362665E-2,6.5717703E-1,-1.4852381E-1,-2.974761E-1,1.64789E-1,-7.0990294E-2,1.7177109E0,2.6413507E0,2.7292705E-1,-2.9522866E-1,1.1740622E-1,-1.2231759E0,-7.45437E-1,-1.8352701E-1,-1.4438799E-1,-1.1493982E0,-2.2192957E-2,8.023589E-1,4.7795388E-1,7.098052E-2,1.5248911E-1,-2.530122E-3,-2.9083973E-2,-2.636364E-2,6.5709364E-1,-8.2853746E-1,4.3334207E-1,1.2331287E-2,-3.1136675E-2,-1.8768476E-2,4.8636958E-2,-1.4653121E-2,-3.643104E-2,-2.1219514E-2,5.9784174E-2,3.8931281E-3,6.756677E-2,-2.367273E-2,4.6851065E-2,-3.4023955E-2,2.1588784E-2,5.5233646E-2,-2.530122E-3,6.96961E-2,1.8260852E-3,-2.7913047E-2,3.8674697E-2,6.7526504E-2,-2.530122E-3,-2.530122E-3,-3.559586E-2,1.6987951E-2,4.9518075E-2],"split_indices":[47,280,44,426,44,7,467,280,410,303,48,153,5,280,278,220,169,423,392,5,312,86,65,295,0,0,0,0,175,45,4,0,0,0,0,0,0,0,0,0,0,0,0,0,0,0,0,0,0,0,0,0,0,0,0,0,0],"split_type":[0,0,0,0,0,0,0,0,0,0,0,0,0,0,0,0,0,0,0,0,0,0,0,0,0,0,0,0,0,0,0,0,0,0,0,0,0,0,0,0,0,0,0,0,0,0,0,0,0,0,0,0,0,0,0,0,0],"sum_hessian":[8.831111E2,6.6622217E2,2.1688887E2,5.2355554E2,1.4266666E2,1.5555554E2,6.133333E1,9.777777E1,4.2577774E2,8.577777E1,5.6888885E1,1.4666666E2,8.888888E0,2.1333332E1,3.9999996E1,4.7111107E1,5.0666664E1,4.142222E2,1.1555555E1,6.0444443E1,2.5333332E1,4.9333332E1,7.5555553E0,1.3866666E2,7.9999995E0,3.111111E0,5.7777777E0,3.9999998E0,1.7333332E1,3.3777775E1,6.222222E0,7.5555553E0,3.9555553E1,9.777777E0,4.0888885E1,7.777777E1,3.3644443E2,5.333333E0,6.222222E0,5.7777777E0,5.4666664E1,1.3777777E1,1.1555555E1,4.4888885E1,4.444444E0,4.444444E0,3.111111E0,1.3377777E2,4.8888884E0,4.8888884E0,3.111111E0,1.4222221E1,3.111111E0,3.111111E0,3.0666664E1,3.111111E0,3.111111E0],"tree_param":{"num_deleted":"0","num_feature":"556","num_nodes":"57","size_leaf_vector":"1"}},{"base_weights":[2.6842961E-2,3.7007093E-1,-5.194368E-1,-2.603301E-1,9.764658E-1,-6.204046E-1,5.341864E-1,5.2989286E-1,-4.7325066E-1,1.2614709E0,-3.6053855E-2,-6.4779055E-1,4.0956523E-2,1.0283544E0,-3.1340785E-2,-1.4534166E-1,1.0791594E0,-6.040175E-1,1.2333693E-2,-4.2569837E-1,1.3339243E0,-4.3427873E-1,9.371601E-1,-6.870467E-1,5.142853E-2,6.610619E-2,-2.421687E-2,4.0956523E-2,-2.1037979E-2,6.5350704E-2,-1.727273E-2,1.1379309E-2,-3.2945573E-2,4.957704E-2,-3.022945E-2,-2.530122E-3,-2.8536588E-2,1.0740739E-2,7.003422E-2,1.3384613E-2,-3.1586315E-2,6.0763635E-2,-1.3373496E-2,-3.518389E-2,1.7272726E-2,5.780488E-2,-2.8356168E-2],"categories":[],"categories_nodes":[],"categories_segments":[],"categories_sizes":[],"default_left":[0,0,0,0,0,0,0,0,0,0,0,0,0,0,0,0,0,0,0,0,0,0,0,0,0,0,0,0,0,0,0,0,0,0,0,0,0,0,0,0,0,0,0,0,0,0,0],"id":1,"left_children":[1,3,5,7,9,11,13,15,17,19,21,23,-1,25,-1,27,29,31,33,35,37,39,41,43,45,-1,-1,-1,-1,-1,-1,-1,-1,-1,-1,-1,-1,-1,-1,-1,-1,-1,-1,-1,-1,-1,-1],"loss_changes":[1.6488664E2,2.0694351E2,3.6598793E1,4.5116894E1,7.9756775E1,1.3015312E1,1.8442055E1,2.1489626E1,1.342968E1,2.7258331E1,2.4567257E1,8.502106E0,0E0,1.07960415E1,0E0,7.6049633E0,1.1070614E1,7.843445E0,2.8692719E1,4.3553782E-1,1.4840027E1,6.534878E0,6.7430515E0,5.371643E0,1.3000036E1,0E0,0E0,0E0,0E0,0E0,0E0,0E0,0E0,0E0,0E0,0E0,0E0,0E0,0E0,0E0,0E0,0E0,0E0,0E0,0E0,0E0,0E0],"parents":[2147483647,0,0,1,1,2,2,3,3,4,4,5,5,6,6,7,7,8,8,9,9,10,10,11,11,13,13,15,15,16,16,17,17,18,18,19,19,20,20,21,21,22,22,23,23,24,24],"right_children":[2,4,6,8,10,12,14,16,18,20,22,24,-1,26,-1,28,30,32,34,36,38,40,42,44,46,-1,-1,-1,-1,-1,-1,-1,-1,-1,-1,-1,-1,-1,-1,-1,-1,-1,-1,-1,-1,-1,-1],"split_conditions":[-2.5315756E-1,-1.6461381E-1,2.4329131E-2,-9.7688144E-1,-2.0194429E-1,2.002109E0,8.960449E-2,2.455576E-2,-1.5992655E-1,-1.9364025E-1,-7.847746E-3,1.7190638E0,4.0956523E-2,-5.595244E-2,-3.1340785E-2,-1.1329402E0,-2.92347E-1,-1.2586411E0,-2.728118E-1,-6.425825E-1,-1.3590756E-1,-4.8624057E-1,3.3269632E-1,3.4446836E0,-7.802591E-2,6.610619E-2,-2.421687E-2,4.0956523E-2,-2.1037979E-2,6.5350704E-2,-1.727273E-2,1.1379309E-2,-3.2945573E-2,4.957704E-2,-3.022945E-2,-2.530122E-3,-2.8536588E-2,1.0740739E-2,7.003422E-2,1.3384613E-2,-3.1586315E-2,6.0763635E-2,-1.3373496E-2,-3.518389E-2,1.7272726E-2,5.780488E-2,-2.8356168E-2],"split_indices":[280,457,495,536,283,254,283,123,325,462,452,204,0,267,0,48,280,124,277,0,370,207,79,56,313,0,0,0,0,0,0,0,0,0,0,0,0,0,0,0,0,0,0,0,0,0,0],"split_type":[0,0,0,0,0,0,0,0,0,0,0,0,0,0,0,0,0,0,0,0,0,0,0,0,0,0,0,0,0,0,0,0,0,0,0,0,0,0,0,0,0,0,0,0,0,0,0],"sum_hessian":[8.764444E2,5.386666E2,3.3777777E2,2.6444443E2,2.742222E2,3.088889E2,2.8888887E1,5.5555553E1,2.0888887E2,2.1377777E2,6.0444443E1,3.0399997E2,4.8888884E0,2.0444443E1,8.444444E0,2.5333332E1,3.0222221E1,1.6444443E2,4.4444443E1,8.444444E0,2.0533333E2,4.3555553E1,1.6888887E1,2.8799997E2,1.5999999E1,1.7333332E1,3.111111E0,4.8888884E0,2.0444443E1,2.6222221E1,3.9999998E0,9.777777E0,1.5466666E2,1.6888887E1,2.7555553E1,3.111111E0,5.333333E0,1.1999999E1,1.9333333E2,9.333333E0,3.422222E1,1.3777777E1,3.111111E0,2.8399997E2,3.9999998E0,5.333333E0,1.0666666E1],"tree_param":{"num_deleted":"0","num_feature":"556","num_nodes":"47","size_leaf_vector":"1"}},{"base_weights":[9.127627E-3,5.548638E-1,-4.2762208E-1,-4.4374146E-2,1.1475794E0,-5.7663697E-1,5.156485E-1,4.9917248E-1,-4.8689803E-1,1.2957468E0,3.3886006E-1,-6.7475414E-1,-2.381283E-1,-3.1379902E-1,1.2633071E0,-2.1309334E-1,9.282675E-1,-6.719857E-1,6.123711E-1,-1.4322585E-1,1.3632871E0,-2.714698E-1,1.1281853E0,-1.5048864E-1,-7.003083E-1,6.80829E-1,-6.854963E-1,4.878261E-2,-5.975953E-1,7.124334E-2,-0E0,5.330935E-2,-2.8076155E-2,5.49135E-2,-1.1632655E-2,-3.513967E-2,6.144577E-3,-1.5343514E-2,5.8877002E-2,-2.636364E-2,1.6987951E-2,2.3076907E-3,6.964325E-2,-3.0218184E-2,3.5454545E-2,1.6987951E-2,6.458128E-2,-2.9259263E-2,5.175824E-2,-3.5484526E-2,6.144577E-3,-1.2819386E-2,5.9920844E-2,6.144577E-3,-3.6518257E-2,6.144577E-3,-3.5011288E-2],"categories":[],"categories_nodes":[],"categories_segments":[],"categories_sizes":[],"default_left":[0,0,0,0,0,0,0,0,0,0,0,0,0,0,0,0,0,0,0,0,0,0,0,0,0,0,0,0,0,0,0,0,0,0,0,0,0,0,0,0,0,0,0,0,0,0,0,0,0,0,0,0,0,0,0,0,0],"id":2,"left_children":[1,3,5,7,9,11,13,15,17,19,21,23,25,27,29,31,33,35,37,39,41,43,45,47,49,51,53,-1,55,-1,-1,-1,-1,-1,-1,-1,-1,-1,-1,-1,-1,-1,-1,-1,-1,-1,-1,-1,-1,-1,-1,-1,-1,-1,-1,-1,-1],"loss_changes":[2.0666063E2,1.3710773E2,6.8132385E1,4.679945E1,2.241745E1,1.3504822E1,4.186023E1,2.7042906E1,2.2450071E1,1.628363E1,1.6041325E1,4.069977E0,4.0235794E1,1.2770516E1,7.2001724E0,1.5977941E1,1.1291702E1,2.455433E0,9.02811E0,1.8847349E0,5.8435974E0,6.925054E0,1.0327625E0,9.654071E0,2.5558777E0,1.6158884E1,2.571165E0,0E0,2.236701E0,0E0,0E0,0E0,0E0,0E0,0E0,0E0,0E0,0E0,0E0,0E0,0E0,0E0,0E0,0E0,0E0,0E0,0E0,0E0,0E0,0E0,0E0,0E0,0E0,0E0,0E0,0E0,0E0],"parents":[2147483647,0,0,1,1,2,2,3,3,4,4,5,5,6,6,7,7,8,8,9,9,10,10,11,11,12,12,13,13,14,14,15,15,16,16,17,17,18,18,19,19,20,20,21,21,22,22,23,23,24,24,25,25,26,26,28,28],"right_children":[2,4,6,8,10,12,14,16,18,20,22,24,26,28,30,32,34,36,38,40,42,44,46,48,50,52,54,-1,56,-1,-1,-1,-1,-1,-1,-1,-1,-1,-1,-1,-1,-1,-1,-1,-1,-1,-1,-1,-1,-1,-1,-1,-1,-1,-1,-1,-1],"split_conditions":[-1.8663284E-1,-2.4794379E-1,1.0013282E-1,-2.2943272E-1,-1.895793E-1,-5.2004468E-2,-7.458528E-2,-1.9722988E-1,-2.1016215E-1,-2.4381231E-1,-1.5682603E-1,-2.3728983E-1,-1.9201787E-1,-2.3058666E-1,1.295049E-1,-2.3431896E-1,8.683815E-1,1.4061174E0,-6.5192476E-2,-3.7242556E-1,-9.259247E-1,1.0914118E0,-5.6823343E-1,-2.195996E-1,2.0716782E0,-1.5964633E-1,-1.9252567E-1,4.878261E-2,-6.673139E-1,7.124334E-2,-0E0,5.330935E-2,-2.8076155E-2,5.49135E-2,-1.1632655E-2,-3.513967E-2,6.144577E-3,-1.5343514E-2,5.8877002E-2,-2.636364E-2,1.6987951E-2,2.3076907E-3,6.964325E-2,-3.0218184E-2,3.5454545E-2,1.6987951E-2,6.458128E-2,-2.9259263E-2,5.175824E-2,-3.5484526E-2,6.144577E-3,-1.2819386E-2,5.9920844E-2,6.144577E-3,-3.6518257E-2,6.144577E-3,-3.5011288E-2],"split_indices":[454,294,305,451,321,309,291,429,298,303,354,450,322,447,323,323,123,192,130,6,124,83,76,311,207,295,319,0,51,0,0,0,0,0,0,0,0,0,0,0,0,0,0,0,0,0,0,0,0,0,0,0,0,0,0,0,0],"split_type":[0,0,0,0,0,0,0,0,0,0,0,0,0,0,0,0,0,0,0,0,0,0,0,0,0,0,0,0,0,0,0,0,0,0,0,0,0,0,0,0,0,0,0,0,0,0,0,0,0,0,0,0,0,0,0,0,0],"sum_hessian":[8.6399994E2,3.8399997E2,4.7999997E2,1.9155554E2,1.9244443E2,4.1511108E2,6.4888885E1,8.577777E1,1.0577777E2,1.6177777E2,3.0666664E1,3.2044443E2,9.4666664E1,3.1111109E1,3.3777775E1,3.2444443E1,5.333333E1,9.111111E1,1.4666666E1,7.1111107E0,1.5466666E2,1.7777777E1,1.2888888E1,1.5555554E1,3.048889E2,3.0666664E1,6.3999996E1,4.8888884E0,2.6222221E1,2.9777777E1,3.9999998E0,6.222222E0,2.6222221E1,4.6666664E1,6.666666E0,8.799999E1,3.111111E0,5.7777777E0,8.888888E0,3.9999998E0,3.111111E0,3.5555553E0,1.511111E2,1.3777777E1,3.9999998E0,3.111111E0,9.777777E0,1.1999999E1,3.5555553E0,3.0177777E2,3.111111E0,1.1111111E1,1.9555553E1,3.111111E0,6.0888885E1,3.111111E0,2.311111E1],"tree_param":{"num_deleted":"0","num_feature":"556","num_nodes":"57","size_leaf_vector":"1"}},{"base_weights":[-9.289741E-3,6.262232E-1,-2.8765428E-1,1.8201888E-1,1.2299432E0,2.8481475E-1,-5.049635E-1,-2.8773758E-1,7.7215403E-1,-1.9001737E-2,1.3008432E0,7.37653E-1,-3.8666686E-1,-5.420899E-1,9.8956406E-1,-5.9229624E-1,3.3845228E-1,1.2255473E0,1.3836686E-1,1.3416368E0,1.1977461E-2,-3.8036135E-1,9.027376E-1,-5.799313E-1,5.2510507E-2,-6.25347E-1,-6.096441E-2,1.628094E-2,5.8512457E-2,-3.514149E-2,2.8872464E-2,6.0556013E-2,-2.4443496E-2,-2.2473086E-3,6.666093E-2,-2.1446478E-2,4.8352495E-2,6.885319E-2,2.632827E-2,1.6633429E-2,-3.168006E-2,5.197514E-2,-2.0754954E-2,-3.3473253E-2,3.0282715E-2,3.8500454E-2,-3.201712E-2,3.794489E-2,-3.070051E-2],"categories":[],"categories_nodes":[],"categories_segments":[],"categories_sizes":[],"default_left":[0,0,0,0,0,0,0,0,0,0,0,0,0,0,0,0,0,0,0,0,0,0,0,0,0,0,0,0,0,0,0,0,0,0,0,0,0,0,0,0,0,0,0,0,0,0,0,0,0],"id":3,"left_children":[1,3,5,7,9,11,13,15,17,-1,19,21,23,25,27,29,31,33,35,37,-1,39,41,43,-1,45,47,-1,-1,-1,-1,-1,-1,-1,-1,-1,-1,-1,-1,-1,-1,-1,-1,-1,-1,-1,-1,-1,-1],"loss_changes":[1.5851062E2,7.2703255E1,7.77788E1,4.4478046E1,1.3996689E1,5.2865753E1,2.586583E1,1.7407104E1,2.001191E1,0E0,4.158966E0,1.9675499E1,2.0390484E1,1.7600937E1,6.504135E-1,8.496777E0,2.273114E1,5.842182E0,1.54341955E1,1.7923126E0,0E0,2.9279556E0,1.7062752E1,7.3019104E0,0E0,8.613129E0,3.1118912E1,0E0,0E0,0E0,0E0,0E0,0E0,0E0,0E0,0E0,0E0,0E0,0E0,0E0,0E0,0E0,0E0,0E0,0E0,0E0,0E0,0E0,0E0],"parents":[2147483647,0,0,1,1,2,2,3,3,4,4,5,5,6,6,7,7,8,8,10,10,11,11,12,12,13,13,14,14,15,15,16,16,17,17,18,18,19,19,21,21,22,22,23,23,25,25,26,26],"right_children":[2,4,6,8,10,12,14,16,18,-1,20,22,24,26,28,30,32,34,36,38,-1,40,42,44,-1,46,48,-1,-1,-1,-1,-1,-1,-1,-1,-1,-1,-1,-1,-1,-1,-1,-1,-1,-1,-1,-1,-1,-1],"split_conditions":[-5.2263606E-1,5.013501E-1,-6.5997833E-1,-3.8667613E-1,-2.037856E0,8.4949724E-2,1.7611933E0,-1.6826272E-1,-2.2975767E-1,-1.9001737E-2,2.5108523E0,-1.6413743E0,8.294772E-1,-1.13908246E-1,-2.7172118E-1,1.9453365E0,-1.5932588E-1,-2.1278748E-1,4.4828346E-1,1.7969735E0,1.1977461E-2,2.3913512E0,4.7517532E-1,1.5705914E0,5.2510507E-2,-2.4808397E0,-1.16701186E-1,1.628094E-2,5.8512457E-2,-3.514149E-2,2.8872464E-2,6.0556013E-2,-2.4443496E-2,-2.2473086E-3,6.666093E-2,-2.1446478E-2,4.8352495E-2,6.885319E-2,2.632827E-2,1.6633429E-2,-3.168006E-2,5.197514E-2,-2.0754954E-2,-3.3473253E-2,3.0282715E-2,3.8500454E-2,-3.201712E-2,3.794489E-2,-3.070051E-2],"split_indices":[7,4,124,5,81,42,41,405,203,0,538,552,535,316,123,90,296,316,125,188,0,240,125,34,0,81,340,0,0,0,0,0,0,0,0,0,0,0,0,0,0,0,0,0,0,0,0,0,0],"split_type":[0,0,0,0,0,0,0,0,0,0,0,0,0,0,0,0,0,0,0,0,0,0,0,0,0,0,0,0,0,0,0,0,0,0,0,0,0,0,0,0,0,0,0,0,0,0,0,0,0],"sum_hessian":[8.9318884E2,2.7138248E2,6.218064E2,1.5756636E2,1.138161E2,1.7083655E2,4.5096985E2,8.8064705E1,6.9501656E1,4.465446E0,1.09350655E2,1.0202998E2,6.8806564E1,4.4103662E2,9.9332E0,5.9410316E1,2.8654392E1,3.960853E1,2.9893127E1,1.04830765E2,4.5198903E0,1.2797658E1,8.923233E1,6.149895E1,7.3076134E0,3.7541486E2,6.562177E1,3.1424832E0,6.790717E0,5.4906254E1,4.5040636E0,1.3665206E1,1.4989185E1,3.09019E0,3.6518337E1,1.8103102E1,1.1790026E1,9.935536E1,5.475405E0,3.1272154E0,9.670443E0,8.119826E1,8.03407E0,5.786631E1,3.6326408E0,3.1176271E0,3.7229724E2,2.6136543E1,3.9485233E1],"tree_param":{"num_deleted":"0","num_feature":"556","num_nodes":"49","size_leaf_vector":"1"}},{"base_weights":[1.0410922E-2,-3.7584466E-1,5.2742964E-1,-4.8645914E-1,2.9476717E-1,8.742661E-1,-3.537093E-1,-1.864551E-1,-6.5577847E-1,9.169953E-1,-3.7577397E-1,1.0882211E0,-2.0305216E-1,-5.670729E-1,2.84255E-1,-4.8743233E-1,5.697779E-1,-6.9222665E-1,-3.160073E-2,6.621852E-2,2.371197E-1,-6.189441E-1,2.5858536E-1,-3.5950274E-3,1.2038507E0,-5.7493544E-1,5.5715997E-2,2.075636E-2,-6.2208885E-1,9.697347E-1,-5.109916E-1,-3.40698E-2,7.323317E-3,-1.5581905E-2,5.0880935E-2,-3.5342753E-2,1.1882981E-2,4.2953286E-2,-3.1480696E-2,-2.9809376E-2,4.8946295E-2,-3.4380537E-2,-2.2338633E-3,5.2381285E-2,-2.7335552E-2,4.9902096E-2,-2.9919088E-2,1.0971546E-2,6.47916E-2,-3.381574E-2,1.6811414E-2,6.583991E-3,-3.408193E-2,6.1916113E-2,-2.5298332E-3,-2.005674E-3,-3.1540617E-2],"categories":[],"categories_nodes":[],"categories_segments":[],"categories_sizes":[],"default_left":[0,0,0,0,0,0,0,0,0,0,0,0,0,0,0,0,0,0,0,0,0,0,0,0,0,0,0,0,0,0,0,0,0,0,0,0,0,0,0,0,0,0,0,0,0,0,0,0,0,0,0,0,0,0,0,0,0],"id":4,"left_children":[1,3,5,7,9,11,13,15,17,19,21,23,25,27,29,31,33,35,37,-1,39,41,43,45,47,49,-1,-1,51,53,55,-1,-1,-1,-1,-1,-1,-1,-1,-1,-1,-1,-1,-1,-1,-1,-1,-1,-1,-1,-1,-1,-1,-1,-1,-1,-1],"loss_changes":[1.7656926E2,3.7765404E1,1.16082886E2,2.1829193E1,3.0796803E1,6.3082336E1,1.4942746E1,3.665461E1,6.2024918E0,9.922115E0,5.8070025E0,2.8800232E1,2.3556261E1,4.8064365E0,1.5996733E1,1.432003E1,1.8677727E1,3.8592834E0,9.8538065E0,0E0,1.0921886E1,9.246893E-1,7.8223147E0,1.465551E1,1.8026184E1,3.8023787E0,0E0,0E0,3.6807156E0,4.479108E0,6.75225E-1,0E0,0E0,0E0,0E0,0E0,0E0,0E0,0E0,0E0,0E0,0E0,0E0,0E0,0E0,0E0,0E0,0E0,0E0,0E0,0E0,0E0,0E0,0E0,0E0,0E0,0E0],"parents":[2147483647,0,0,1,1,2,2,3,3,4,4,5,5,6,6,7,7,8,8,9,9,10,10,11,11,12,12,13,13,14,14,15,15,16,16,17,17,18,18,20,20,21,21,22,22,23,23,24,24,25,25,28,28,29,29,30,30],"right_children":[2,4,6,8,10,12,14,16,18,20,22,24,26,28,30,32,34,36,38,-1,40,42,44,46,48,50,-1,-1,52,54,56,-1,-1,-1,-1,-1,-1,-1,-1,-1,-1,-1,-1,-1,-1,-1,-1,-1,-1,-1,-1,-1,-1,-1,-1,-1,-1],"split_conditions":[8.4949724E-2,-8.408508E-2,-2.3093577E-1,-2.6630324E-1,-2.0299256E-1,4.1950864E-1,-7.0368275E-2,-1.9251493E-1,-1.1076663E-1,-6.0027722E-2,-9.4237216E-2,-2.1804333E-1,6.365857E-1,-8.4914446E-2,-2.0518775E-1,2.4476016E-1,-5.372396E-1,2.0872955E0,-2.16944E-1,6.621852E-2,-8.229862E-2,1.9360697E-2,-1.2744406E-1,-1.2273219E-1,-9.1050225E-1,1.0803161E0,5.5715997E-2,2.075636E-2,-1.0154069E-1,6.0376406E-1,-5.2958345E-1,-3.40698E-2,7.323317E-3,-1.5581905E-2,5.0880935E-2,-3.5342753E-2,1.1882981E-2,4.2953286E-2,-3.1480696E-2,-2.9809376E-2,4.8946295E-2,-3.4380537E-2,-2.2338633E-3,5.2381285E-2,-2.7335552E-2,4.9902096E-2,-2.9919088E-2,1.0971546E-2,6.47916E-2,-3.381574E-2,1.6811414E-2,6.583991E-3,-3.408193E-2,6.1916113E-2,-2.5298332E-3,-2.005674E-3,-3.1540617E-2],"split_indices":[42,503,281,279,276,127,501,336,335,437,333,456,204,313,412,163,203,160,410,0,499,298,279,470,43,40,0,0,376,114,156,0,0,0,0,0,0,0,0,0,0,0,0,0,0,0,0,0,0,0,0,0,0,0,0,0,0],"split_type":[0,0,0,0,0,0,0,0,0,0,0,0,0,0,0,0,0,0,0,0,0,0,0,0,0,0,0,0,0,0,0,0,0,0,0,0,0,0,0,0,0,0,0,0,0,0,0,0,0,0,0,0,0,0,0,0,0],"sum_hessian":[8.8110156E2,5.0445117E2,3.7665042E2,4.335071E2,7.094407E1,2.7035693E2,1.0629348E2,1.5774794E2,2.7575916E2,3.658908E1,3.4354992E1,2.2562544E2,4.4731487E1,7.98961E1,2.6397379E1,1.1331464E2,4.4433296E1,2.6023904E2,1.5520122E1,2.1898613E1,1.4690468E1,2.4975267E1,9.379725E0,2.1663107E1,2.0396234E2,3.5602474E1,9.129016E0,3.6206455E0,7.627546E1,1.4067889E1,1.2329491E1,8.680037E1,2.6514267E1,1.5048519E1,2.9384779E1,2.566686E2,3.570439E0,5.9043317E0,9.615789E0,6.993724E0,7.696744E0,2.188788E1,3.0873868E0,4.5724125E0,4.807313E0,7.6295824E0,1.40335245E1,1.7955965E1,1.8600638E2,3.24845E1,3.1179736E0,5.328766E0,7.094669E1,1.0960288E1,3.1076014E0,3.0764074E0,9.253082E0],"tree_param":{"num_deleted":"0","num_feature":"556","num_nodes":"57","size_leaf_vector":"1"}},{"base_weights":[-1.5824115E-2,5.1276636E-1,-4.3139485E-1,-4.8543904E-2,1.0564692E0,-5.745832E-1,3.7213448E-1,4.735761E-1,-4.862623E-1,1.1519732E0,-1.2206641E-1,4.7807198E-2,-5.897746E-1,-2.0026779E-1,1.1939617E0,-4.0298188E-1,8.3050746E-1,-6.395472E-1,4.7314584E-1,-2.1374291E-1,1.234055E0,-2.7970588E-2,3.7218057E-2,-2.0687488E-1,-6.479963E-1,9.191588E-1,-6.4588994E-1,-2.8511418E-3,6.690299E-2,4.7168877E-2,-3.250708E-2,-1.1948916E-2,5.01915E-2,-3.402575E-2,1.7166236E-2,5.1571548E-2,-2.765899E-2,-3.0019192E-2,2.731957E-2,4.7388655E-4,6.498956E-2,-2.7221216E-2,5.458302E-2,1.717041E-2,-3.3035982E-2,-2.5761162E-3,6.1063796E-2,-3.5050113E-2,-2.0502305E-3],"categories":[],"categories_nodes":[],"categories_segments":[],"categories_sizes":[],"default_left":[0,0,0,0,0,0,0,0,0,0,0,0,0,0,0,0,0,0,0,0,0,0,0,0,0,0,0,0,0,0,0,0,0,0,0,0,0,0,0,0,0,0,0,0,0,0,0,0,0],"id":5,"left_children":[1,3,5,7,9,11,13,15,17,19,21,-1,23,25,27,29,31,33,35,37,39,-1,-1,41,43,45,47,-1,-1,-1,-1,-1,-1,-1,-1,-1,-1,-1,-1,-1,-1,-1,-1,-1,-1,-1,-1,-1,-1],"loss_changes":[1.9560101E2,1.19767395E2,5.7709373E1,4.4718212E1,2.2735718E1,1.0666458E1,3.6312416E1,2.8451303E1,1.612623E1,2.117987E1,6.7488065E0,0E0,9.09259E0,2.3879591E1,5.9350815E0,9.78849E0,1.2291592E1,4.109524E0,9.749191E0,3.9270842E0,1.3883789E1,0E0,0E0,2.6241474E1,4.966858E0,4.2268677E0,1.0143623E0,0E0,0E0,0E0,0E0,0E0,0E0,0E0,0E0,0E0,0E0,0E0,0E0,0E0,0E0,0E0,0E0,0E0,0E0,0E0,0E0,0E0,0E0],"parents":[2147483647,0,0,1,1,2,2,3,3,4,4,5,5,6,6,7,7,8,8,9,9,10,10,12,12,13,13,14,14,15,15,16,16,17,17,18,18,19,19,20,20,23,23,24,24,25,25,26,26],"right_children":[2,4,6,8,10,12,14,16,18,20,22,-1,24,26,28,30,32,34,36,38,40,-1,-1,42,44,46,48,-1,-1,-1,-1,-1,-1,-1,-1,-1,-1,-1,-1,-1,-1,-1,-1,-1,-1,-1,-1,-1,-1],"split_conditions":[-1.8663284E-1,-2.4794379E-1,9.040755E-2,-2.3361754E-1,-1.4173017E-1,-2.582789E0,1.1302303E-1,-2.2624673E-1,-2.1016215E-1,-8.152126E-1,-1.191082E-1,4.7807198E-2,-1.7624418E-1,-1.8408076E-1,-1.2274343E-1,-2.519686E-1,-9.7181165E-1,1.842757E0,-3.993259E-2,-1.8125884E-1,-2.2504857E-1,-2.7970588E-2,3.7218057E-2,-1.003772E-1,-7.0153487E-1,-7.368665E-1,2.4230592E-1,-2.8511418E-3,6.690299E-2,4.7168877E-2,-3.250708E-2,-1.1948916E-2,5.01915E-2,-3.402575E-2,1.7166236E-2,5.1571548E-2,-2.765899E-2,-3.0019192E-2,2.731957E-2,4.7388655E-4,6.498956E-2,-2.7221216E-2,5.458302E-2,1.717041E-2,-3.3035982E-2,-2.5761162E-3,6.1063796E-2,-3.5050113E-2,-2.0502305E-3],"split_indices":[454,294,290,323,318,22,305,431,298,124,342,0,453,324,351,322,154,551,33,424,431,0,0,305,251,119,162,0,0,0,0,0,0,0,0,0,0,0,0,0,0,0,0,0,0,0,0,0,0],"split_type":[0,0,0,0,0,0,0,0,0,0,0,0,0,0,0,0,0,0,0,0,0,0,0,0,0,0,0,0,0,0,0,0,0,0,0,0,0,0,0,0,0,0,0,0,0,0,0,0,0],"sum_hessian":[8.87471E2,3.9035834E2,4.9711267E2,1.9265082E2,1.9770752E2,4.2239417E2,7.471849E1,8.769499E1,1.04955826E2,1.829968E2,1.4710716E1,3.1730947E0,4.1922107E2,4.463973E1,3.0078762E1,2.5238983E1,6.2456005E1,9.101815E1,1.39376745E1,1.0169375E1,1.7282742E2,1.0205991E1,4.5047264E0,5.6459293E1,3.6276178E2,1.2192686E1,3.2447044E1,3.1287785E0,2.6949984E1,3.1965308E0,2.2042454E1,8.550433E0,5.3905575E1,8.791681E1,3.101341E0,9.08547E0,4.852204E0,7.0368776E0,3.1324983E0,8.969785E0,1.6385764E2,4.556338E1,1.0895912E1,4.002988E0,3.587588E2,3.1108708E0,9.081816E0,2.9367632E1,3.079413E0],"tree_param":{"num_deleted":"0","num_feature":"556","num_nodes":"49","size_leaf_vector":"1"}},{"base_weights":[4.717618E-3,4.4180128E-1,-4.5919454E-1,-7.7504694E-2,9.0217483E-1,-5.1524657E-1,9.6176076E-1,-4.4724134E-1,6.81831E-1,4.785847E-1,1.1789151E0,1.5503058E-1,-5.735857E-1,2.2213717E-3,5.9869725E-2,2.141586E-1,-6.570401E-1,9.5275295E-1,-2.216078E-1,1.0887709E0,-3.42076E-1,2.7717018E-1,1.2288456E0,-5.464402E-1,7.7365285E-1,5.2033465E-2,-5.9775823E-1,-2.6061643E-2,3.3764772E-2,-3.456001E-2,1.2121591E-2,-2.4883142E-2,5.340749E-2,-2.886E-2,3.345379E-2,6.1698742E-2,2.8676447E-3,-2.399688E-2,3.9049786E-2,4.854421E-2,-2.5644397E-2,6.329071E-2,-0E0,-3.2453984E-2,-1.7980719E-3,5.955076E-2,3.0819045E-3,-3.1411868E-2,1.51871815E-2],"categories":[],"categories_nodes":[],"categories_segments":[],"categories_sizes":[],"default_left":[0,0,0,0,0,0,0,0,0,0,0,0,0,0,0,0,0,0,0,0,0,0,0,0,0,0,0,0,0,0,0,0,0,0,0,0,0,0,0,0,0,0,0,0,0,0,0,0,0],"id":6,"left_children":[1,3,5,7,9,11,13,15,17,19,21,23,25,-1,-1,27,29,31,33,35,37,39,41,43,45,-1,47,-1,-1,-1,-1,-1,-1,-1,-1,-1,-1,-1,-1,-1,-1,-1,-1,-1,-1,-1,-1,-1,-1],"loss_changes":[1.786522E2,1.0866924E2,3.4733253E1,6.0658554E1,2.7209412E1,1.6291443E1,3.3997698E0,2.0411621E1,1.7706951E1,4.9607628E1,5.842102E0,1.5429767E1,1.5701096E1,0E0,0E0,1.2750614E1,3.6994934E0,1.0026016E1,6.0980926E0,8.229774E0,7.1555033E0,6.065453E0,6.184372E0,7.744541E-1,5.3473816E0,0E0,1.0622925E1,0E0,0E0,0E0,0E0,0E0,0E0,0E0,0E0,0E0,0E0,0E0,0E0,0E0,0E0,0E0,0E0,0E0,0E0,0E0,0E0,0E0,0E0],"parents":[2147483647,0,0,1,1,2,2,3,3,4,4,5,5,6,6,7,7,8,8,9,9,10,10,11,11,12,12,15,15,16,16,17,17,18,18,19,19,20,20,21,21,22,22,23,23,24,24,26,26],"right_children":[2,4,6,8,10,12,14,16,18,20,22,24,26,-1,-1,28,30,32,34,36,38,40,42,44,46,-1,48,-1,-1,-1,-1,-1,-1,-1,-1,-1,-1,-1,-1,-1,-1,-1,-1,-1,-1,-1,-1,-1,-1],"split_conditions":[-1.1008389E-1,-5.750553E-2,6.510894E-1,-2.5315756E-1,-2.0991825E-1,-1.6360813E-1,-2.198263E-1,-2.049182E-1,-1.3065366E-1,-1.5049809E-1,-1.2651718E0,-2.2739635E-1,-3.3448455E0,2.2213717E-3,5.9869725E-2,-2.8176233E-1,1.3964343E0,-1.4976756E-1,7.3845726E-1,-1.7461771E-1,7.234995E-1,-4.067294E-2,4.0390143E-1,-1.0980633E-1,-9.1826814E-1,5.2033465E-2,1.135777E0,-2.6061643E-2,3.3764772E-2,-3.456001E-2,1.2121591E-2,-2.4883142E-2,5.340749E-2,-2.886E-2,3.345379E-2,6.1698742E-2,2.8676447E-3,-2.399688E-2,3.9049786E-2,4.854421E-2,-2.5644397E-2,6.329071E-2,-0E0,-3.2453984E-2,-1.7980719E-3,5.955076E-2,3.0819045E-3,-3.1411868E-2,1.51871815E-2],"split_indices":[44,127,317,280,320,465,56,426,466,466,167,118,118,0,0,277,39,364,149,424,34,83,295,485,213,0,278,0,0,0,0,0,0,0,0,0,0,0,0,0,0,0,0,0,0,0,0,0,0],"split_type":[0,0,0,0,0,0,0,0,0,0,0,0,0,0,0,0,0,0,0,0,0,0,0,0,0,0,0,0,0,0,0,0,0,0,0,0,0,0,0,0,0,0,0,0,0,0,0,0,0],"sum_hessian":[8.78073E2,4.5225726E2,4.258157E2,2.1301006E2,2.3924721E2,4.1064365E2,1.5172079E1,1.4375897E2,6.925108E1,9.6300735E1,1.4294647E2,3.2543247E1,3.781004E2,3.5518324E0,1.1620247E1,3.4497204E1,1.09261765E2,5.3297203E1,1.595388E1,5.5022003E1,4.127873E1,8.120448E0,1.3482603E2,1.525669E1,1.7286556E1,4.586667E0,3.7351373E2,1.313616E1,2.1361044E1,1.0570579E2,3.5559814E0,3.4978185E0,4.979938E1,1.1859402E1,4.094479E0,4.788866E1,7.133343E0,3.7609978E1,3.6687508E0,4.208454E0,3.9119942E0,1.3083911E2,3.9869084E0,1.2200444E1,3.0562453E0,1.0173558E1,7.112998E0,3.618456E2,1.1668118E1],"tree_param":{"num_deleted":"0","num_feature":"556","num_nodes":"49","size_leaf_vector":"1"}},{"base_weights":[3.1457194E-3,4.7341835E-1,-3.9191055E-1,-1.3248257E-1,9.634727E-1,-6.227258E-1,1.2837298E-1,-4.9763104E-1,3.6529577E-1,1.0899125E0,-5.6464934E-1,-6.6435325E-1,7.402242E-1,7.926773E-1,-4.6153256E-1,4.9079496E-2,-5.575856E-1,7.94855E-1,-5.338174E-1,1.2152784E0,3.0411902E-1,-3.2967906E-2,-2.3982783E-3,-6.842417E-1,1.6170964E-2,-1.9060578E-3,5.3807106E-2,-2.693638E-1,1.1604524E0,-5.497566E-1,4.7184683E-2,1.1827937E-2,-3.0838877E-2,-1.0636709E-2,5.5086512E-2,7.855792E-3,-3.3710014E-2,-1.3114387E-2,6.219635E-2,-2.0146208E-2,5.9489883E-2,-3.4644272E-2,-0E0,3.136918E-2,-3.2493263E-2,-1.3440721E-2,6.2954955E-2,3.0202225E-2,-3.2260675E-2],"categories":[],"categories_nodes":[],"categories_segments":[],"categories_sizes":[],"default_left":[0,0,0,0,0,0,0,0,0,0,0,0,0,0,0,0,0,0,0,0,0,0,0,0,0,0,0,0,0,0,0,0,0,0,0,0,0,0,0,0,0,0,0,0,0,0,0,0,0],"id":7,"left_children":[1,3,5,7,9,11,13,15,17,19,21,23,25,27,29,-1,31,33,35,37,39,-1,-1,41,-1,-1,-1,43,45,47,-1,-1,-1,-1,-1,-1,-1,-1,-1,-1,-1,-1,-1,-1,-1,-1,-1,-1,-1],"loss_changes":[1.656837E2,1.2119278E2,5.8356224E1,3.360709E1,4.4529068E1,1.9794662E1,5.9366596E1,1.0223644E1,3.0912313E1,1.9858963E1,7.701602E-1,6.7905273E0,2.9360237E0,2.8362923E1,1.0696646E1,0E0,5.1161385E0,1.7038082E1,2.7463999E0,8.182739E0,2.0106167E1,0E0,0E0,1.9160156E0,0E0,0E0,0E0,7.25315E0,8.111549E0,9.024374E0,0E0,0E0,0E0,0E0,0E0,0E0,0E0,0E0,0E0,0E0,0E0,0E0,0E0,0E0,0E0,0E0,0E0,0E0,0E0],"parents":[2147483647,0,0,1,1,2,2,3,3,4,4,5,5,6,6,7,7,8,8,9,9,10,10,11,11,12,12,13,13,14,14,16,16,17,17,18,18,19,19,20,20,23,23,27,27,28,28,29,29],"right_children":[2,4,6,8,10,12,14,16,18,20,22,24,26,28,30,-1,32,34,36,38,40,-1,-1,42,-1,-1,-1,44,46,48,-1,-1,-1,-1,-1,-1,-1,-1,-1,-1,-1,-1,-1,-1,-1,-1,-1,-1,-1],"split_conditions":[-2.6143736E-1,-1.6597958E-1,-1.6659763E-1,3.6168527E-2,-2.3537883E-1,2.077245E0,-1.7067721E-1,-8.656508E-2,8.368863E-2,2.364028E-1,-1.4280264E-1,2.1097126E0,-1.4229174E-1,-1.2500001E-1,1.4414754E0,4.9079496E-2,-1.6393131E0,-4.8822728E-1,-1.0064447E0,-1.1786606E0,5.0157225E-1,-3.2967906E-2,-2.3982783E-3,1.3840071E0,1.6170964E-2,-1.9060578E-3,5.3807106E-2,-5.2145016E-1,-1.0742141E0,-9.4374314E-2,4.7184683E-2,1.1827937E-2,-3.0838877E-2,-1.0636709E-2,5.5086512E-2,7.855792E-3,-3.3710014E-2,-1.3114387E-2,6.219635E-2,-2.0146208E-2,5.9489883E-2,-3.4644272E-2,-0E0,3.136918E-2,-3.2493263E-2,-1.3440721E-2,6.2954955E-2,3.0202225E-2,-3.2260675E-2],"split_indices":[279,457,459,123,284,204,283,436,159,127,301,46,329,367,117,0,116,42,553,122,204,0,0,8,0,0,0,127,202,441,0,0,0,0,0,0,0,0,0,0,0,0,0,0,0,0,0,0,0],"split_type":[0,0,0,0,0,0,0,0,0,0,0,0,0,0,0,0,0,0,0,0,0,0,0,0,0,0,0,0,0,0,0,0,0,0,0,0,0,0,0,0,0,0,0,0,0,0,0,0,0],"sum_hessian":[8.887655E2,4.0573572E2,4.830298E2,1.8182211E2,2.2391359E2,3.3452164E2,1.4850815E2,1.0500002E2,7.68221E1,2.0726007E2,1.6653517E1,3.2542465E2,9.096976E0,6.96866E1,7.882154E1,3.1268525E0,1.0187317E2,5.2178513E1,2.4643587E1,1.779265E2,2.9333569E1,1.3560176E1,3.0933416E0,3.1955276E2,5.8719087E0,3.0536158E0,6.0433607E0,1.7957983E1,5.172862E1,7.509142E1,3.7301192E0,6.6375E0,9.5235664E1,1.2212962E1,3.996555E1,4.0110335E0,2.0632553E1,3.0851505E0,1.7484135E2,1.6703638E1,1.2629931E1,3.1558334E2,3.969405E0,4.981579E0,1.2976404E1,3.1072445E0,4.8621372E1,5.047088E0,7.0044334E1],"tree_param":{"num_deleted":"0","num_feature":"556","num_nodes":"49","size_leaf_vector":"1"}},{"base_weights":[1.2439958E-2,5.167747E-1,-3.9746538E-1,-5.5278696E-2,1.0347694E0,-5.757797E-1,4.016859E-1,8.526268E-1,-2.4358921E-1,1.162275E0,4.111542E-2,3.9612062E-2,-5.91784E-1,-6.164694E-1,8.290432E-1,6.1906684E-2,-1.4677922E-1,-4.265282E-1,6.2090975E-1,-7.9530515E-3,1.2068164E0,-2.9059822E-2,7.4885833E-1,-6.056677E-1,3.1215204E-2,-2.2273185E-3,-3.4141857E-2,1.0683719E0,-3.7546915E-1,-2.8244454E-2,2.5664715E-2,-1.8913149E-4,-3.3475187E-2,-1.0081657E-2,5.4264452E-2,1.3216366E-2,6.2477548E-2,-1.3456389E-2,5.7032745E-2,-3.1348492E-3,-3.1804107E-2,-1.6739007E-2,5.9622187E-2,-2.9664477E-2,6.3188705E-3],"categories":[],"categories_nodes":[],"categories_segments":[],"categories_sizes":[],"default_left":[0,0,0,0,0,0,0,0,0,0,0,0,0,0,0,0,0,0,0,0,0,0,0,0,0,0,0,0,0,0,0,0,0,0,0,0,0,0,0,0,0,0,0,0,0],"id":8,"left_children":[1,3,5,7,9,11,13,15,17,19,21,-1,23,25,27,-1,29,31,33,-1,35,-1,37,39,-1,-1,-1,41,43,-1,-1,-1,-1,-1,-1,-1,-1,-1,-1,-1,-1,-1,-1,-1,-1],"loss_changes":[1.812642E2,1.166954E2,6.9273926E1,3.242335E1,2.5972656E1,9.355026E0,3.951219E1,1.2929466E1,2.5225098E1,1.115625E1,1.1737972E1,0E0,7.1909943E0,9.103813E-1,1.8946125E1,0E0,3.2922416E0,1.3349455E1,1.1094817E1,0E0,6.488922E0,0E0,5.5286884E0,6.291687E0,0E0,0E0,0E0,9.971672E0,1.421597E0,0E0,0E0,0E0,0E0,0E0,0E0,0E0,0E0,0E0,0E0,0E0,0E0,0E0,0E0,0E0,0E0],"parents":[2147483647,0,0,1,1,2,2,3,3,4,4,5,5,6,6,7,7,8,8,9,9,10,10,12,12,13,13,14,14,16,16,17,17,18,18,20,20,22,22,23,23,27,27,28,28],"right_children":[2,4,6,8,10,12,14,16,18,20,22,-1,24,26,28,-1,30,32,34,-1,36,-1,38,40,-1,-1,-1,42,44,-1,-1,-1,-1,-1,-1,-1,-1,-1,-1,-1,-1,-1,-1,-1,-1],"split_conditions":[-1.8663284E-1,-1.8681583E-1,5.892203E-2,-2.519072E-1,-1.8593663E-1,-2.582789E0,-6.7160267E-1,8.2491237E-1,-1.8274932E-1,-9.8210394E-1,-8.112532E-2,3.9612062E-2,2.5952451E0,-1.2454478E0,1.5440151E-1,6.1906684E-2,-2.2627558E-1,-2.3768221E-1,-2.13644E-1,-7.9530515E-3,-6.518239E-2,-2.9059822E-2,-2.9403374E-1,-1.3361249E0,3.1215204E-2,-2.2273185E-3,-3.4141857E-2,-8.06513E-2,-3.1672695E-1,-2.8244454E-2,2.5664715E-2,-1.8913149E-4,-3.3475187E-2,-1.0081657E-2,5.4264452E-2,1.3216366E-2,6.2477548E-2,-1.3456389E-2,5.7032745E-2,-3.1348492E-3,-3.1804107E-2,-1.6739007E-2,5.9622187E-2,-2.9664477E-2,6.3188705E-3],"split_indices":[454,296,418,322,321,22,6,10,299,124,480,0,34,31,451,0,431,452,416,0,437,0,64,43,0,0,0,476,3,0,0,0,0,0,0,0,0,0,0,0,0,0,0,0,0],"split_type":[0,0,0,0,0,0,0,0,0,0,0,0,0,0,0,0,0,0,0,0,0,0,0,0,0,0,0,0,0,0,0,0,0,0,0,0,0,0,0,0,0,0,0,0,0],"sum_hessian":[8.737702E2,3.9169446E2,4.8207574E2,1.866796E2,2.0501486E2,3.945781E2,8.7497665E1,3.1068016E1,1.5561159E2,1.8138446E2,2.3630404E1,3.6492023E0,3.909289E2,2.560275E1,6.1894913E1,2.223351E1,8.834507E0,1.2915611E2,2.6455475E1,5.7160096E0,1.7566844E2,1.2641637E1,1.0988766E1,3.873419E2,3.5869992E0,3.079424E0,2.2523327E1,5.1846012E1,1.00489E1,5.6337366E0,3.200771E0,4.7845726E1,8.131038E1,9.774868E0,1.6680607E1,8.188685E0,1.6747977E2,3.113504E0,7.875262E0,2.0964005E1,3.663779E2,3.9395485E0,4.7906464E1,6.9557743E0,3.0931253E0],"tree_param":{"num_deleted":"0","num_feature":"556","num_nodes":"45","size_leaf_vector":"1"}},{"base_weights":[-1.3387648E-2,-2.8112507E-1,7.612812E-1,2.3718408E-1,-4.9425325E-1,9.3131435E-1,-4.1247776E-1,-1.0254667E-1,9.9678177E-1,-6.0726243E-1,8.76875E-2,1.0501297E0,-2.567789E-1,4.5467194E-2,-3.1713948E-2,6.030677E-1,-5.420873E-1,-6.614029E-3,1.1143934E0,-3.5940456E-1,-6.80539E-1,6.872824E-1,-3.5064045E-1,1.1201484E0,1.687474E-1,-3.2222684E-2,4.5182284E-2,-5.2089193E-3,5.6711894E-2,-3.328675E-2,2.2002699E-2,5.8687877E-2,4.7694356E-3,-3.0081263E-2,3.2638643E-2,-3.4498204E-2,-6.8283826E-3,4.3806188E-2,-2.5154281E-2,-2.63562E-2,4.918159E-2,1.2664208E-2,5.868687E-2,5.2160766E-2,-2.9958589E-2],"categories":[],"categories_nodes":[],"categories_segments":[],"categories_sizes":[],"default_left":[0,0,0,0,0,0,0,0,0,0,0,0,0,0,0,0,0,0,0,0,0,0,0,0,0,0,0,0,0,0,0,0,0,0,0,0,0,0,0,0,0,0,0,0,0],"id":9,"left_children":[1,3,5,7,9,11,13,15,17,19,21,23,25,-1,-1,27,29,-1,31,33,35,37,39,41,43,-1,-1,-1,-1,-1,-1,-1,-1,-1,-1,-1,-1,-1,-1,-1,-1,-1,-1,-1,-1],"loss_changes":[1.8057878E2,7.169949E1,4.5252136E1,4.913732E1,3.0335358E1,2.8128632E1,9.415209E0,4.1481506E1,8.12529E0,6.52005E0,2.0330103E1,1.0597382E1,9.36486E0,0E0,0E0,1.9574375E1,1.0459799E1,0E0,2.9401321E0,2.2973068E1,1.2889557E0,8.03465E0,1.1261394E1,7.071808E0,1.1055321E1,0E0,0E0,0E0,0E0,0E0,0E0,0E0,0E0,0E0,0E0,0E0,0E0,0E0,0E0,0E0,0E0,0E0,0E0,0E0,0E0],"parents":[2147483647,0,0,1,1,2,2,3,3,4,4,5,5,6,6,7,7,8,8,9,9,10,10,11,11,12,12,15,15,16,16,18,18,19,19,20,20,21,21,22,22,23,23,24,24],"right_children":[2,4,6,8,10,12,14,16,18,20,22,24,26,-1,-1,28,30,-1,32,34,36,38,40,42,44,-1,-1,-1,-1,-1,-1,-1,-1,-1,-1,-1,-1,-1,-1,-1,-1,-1,-1,-1,-1],"split_conditions":[5.110273E-1,-6.5997833E-1,6.5717703E-1,-2.25776E-1,1.123821E-1,8.8092005E-1,-1.0190027E0,-2.0422326E-1,-1.0378628E-1,-2.4623773E-1,-1.3405672E-1,-3.1343512E-3,4.1357064E-1,4.5467194E-2,-3.1713948E-2,-2.6519197E-1,1.0550302E0,-6.614029E-3,9.330868E-1,-2.6143736E-1,1.8310027E0,1.0989826E0,2.0289588E0,-2.1151309E-1,-2.747182E-1,-3.2222684E-2,4.5182284E-2,-5.2089193E-3,5.6711894E-2,-3.328675E-2,2.2002699E-2,5.8687877E-2,4.7694356E-3,-3.0081263E-2,3.2638643E-2,-3.4498204E-2,-6.8283826E-3,4.3806188E-2,-2.5154281E-2,-2.63562E-2,4.918159E-2,1.2664208E-2,5.868687E-2,5.2160766E-2,-2.9958589E-2],"split_indices":[47,124,7,409,404,44,66,463,393,293,419,295,282,0,0,398,526,0,214,279,24,200,135,537,169,0,0,0,0,0,0,0,0,0,0,0,0,0,0,0,0,0,0,0,0],"split_type":[0,0,0,0,0,0,0,0,0,0,0,0,0,0,0,0,0,0,0,0,0,0,0,0,0,0,0,0,0,0,0,0,0,0,0,0,0,0,0,0,0,0,0,0,0],"sum_hessian":[8.6782965E2,6.457376E2,2.2209206E2,1.8797073E2,4.5776688E2,1.9433528E2,2.7756779E1,1.306868E2,5.7283936E1,3.8341644E2,7.435045E1,1.769025E2,1.743279E1,3.2554407E0,2.4501339E1,4.9859512E1,8.082729E1,5.306318E0,5.197762E1,8.982057E1,2.9359586E2,3.1135695E1,4.3214752E1,1.6340173E2,1.350076E1,1.3631809E1,3.800981E0,2.1821722E1,2.803779E1,7.230894E1,8.518352E0,4.8808254E1,3.1693635E0,7.304713E1,1.677344E1,2.8801917E2,5.576709E0,2.7286865E1,3.8488278E0,3.9034084E1,4.1806693E0,1.012203E1,1.532797E2,6.121912E0,7.3788486E0],"tree_param":{"num_deleted":"0","num_feature":"556","num_nodes":"45","size_leaf_vector":"1"}},{"base_weights":[-8.581022E-3,3.577681E-1,-4.216823E-1,-2.675203E-1,8.015583E-1,-6.0311913E-1,5.7342812E-2,3.9727035E-1,-4.644841E-1,9.3918127E-1,-4.4278947E-1,-6.509454E-1,2.33134E-1,7.2394353E-1,-4.7691396E-1,-1.814572E-1,6.0595997E-2,-6.686321E-1,-1.1898316E-1,2.3791373E-1,1.0972142E0,1.6017975E-2,-3.1666312E-2,-6.67152E-1,2.426145E-2,4.949817E-2,-2.4952522E-2,-3.3906385E-1,9.756295E-1,-5.7318795E-1,3.7783008E-2,3.505635E-2,-3.0474713E-2,1.5369809E-2,-3.545552E-2,2.3809826E-2,-2.7505323E-2,4.8950497E-2,-2.5719637E-2,5.7330918E-2,-8.228457E-4,-0E0,-3.4004968E-2,7.428595E-3,-2.8419813E-2,-2.3843689E-2,5.5553477E-2,2.2542557E-2,-3.4023453E-2],"categories":[],"categories_nodes":[],"categories_segments":[],"categories_sizes":[],"default_left":[0,0,0,0,0,0,0,0,0,0,0,0,0,0,0,0,0,0,0,0,0,0,0,0,0,0,0,0,0,0,0,0,0,0,0,0,0,0,0,0,0,0,0,0,0,0,0,0,0],"id":10,"left_children":[1,3,5,7,9,11,13,15,17,19,21,23,25,27,29,31,-1,33,35,37,39,-1,-1,41,-1,-1,-1,43,45,47,-1,-1,-1,-1,-1,-1,-1,-1,-1,-1,-1,-1,-1,-1,-1,-1,-1,-1,-1],"loss_changes":[1.3213002E2,1.2874176E2,3.5779472E1,2.5562477E1,4.708751E1,1.2186821E1,4.1132412E1,2.1562859E1,1.0363567E1,2.6581482E1,4.397958E0,5.7030487E0,1.0271952E1,1.4307623E1,8.236423E0,1.0996635E1,0E0,4.0657806E0,1.5185993E1,2.7013844E1,1.1094574E1,0E0,0E0,2.4272308E0,0E0,0E0,0E0,1.384732E0,9.122837E0,7.115715E0,0E0,0E0,0E0,0E0,0E0,0E0,0E0,0E0,0E0,0E0,0E0,0E0,0E0,0E0,0E0,0E0,0E0,0E0,0E0],"parents":[2147483647,0,0,1,1,2,2,3,3,4,4,5,5,6,6,7,7,8,8,9,9,10,10,11,11,12,12,13,13,14,14,15,15,17,17,18,18,19,19,20,20,23,23,27,27,28,28,29,29],"right_children":[2,4,6,8,10,12,14,16,18,20,22,24,26,28,30,32,-1,34,36,38,40,-1,-1,42,-1,-1,-1,44,46,48,-1,-1,-1,-1,-1,-1,-1,-1,-1,-1,-1,-1,-1,-1,-1,-1,-1,-1,-1],"split_conditions":[-2.5263602E-1,-1.7208873E-1,-1.4608611E-1,-2.7762827E-1,-2.3537883E-1,-3.191153E-2,-1.3150991E-1,-4.1861546E-1,5.806443E-2,-1.6461381E-1,-1.5542638E-1,2.3625586E0,-5.891248E-2,-1.3850683E-1,1.673925E0,-3.1114075E-1,6.0595997E-2,-1.3262008E0,-6.589559E-1,-3.2688332E-1,9.723383E-1,1.6017975E-2,-3.1666312E-2,-1.5926957E0,2.426145E-2,4.949817E-2,-2.4952522E-2,-9.013008E-2,-1.4772981E-1,-9.32264E-2,3.7783008E-2,3.505635E-2,-3.0474713E-2,1.5369809E-2,-3.545552E-2,2.3809826E-2,-2.7505323E-2,4.8950497E-2,-2.5719637E-2,5.7330918E-2,-8.228457E-4,-0E0,-3.4004968E-2,7.428595E-3,-2.8419813E-2,-2.3843689E-2,5.5553477E-2,2.2542557E-2,-3.4023453E-2],"split_indices":[279,461,459,282,284,503,283,122,123,457,349,46,309,467,117,91,0,61,128,284,127,0,0,534,0,0,0,352,325,441,0,0,0,0,0,0,0,0,0,0,0,0,0,0,0,0,0,0,0],"split_type":[0,0,0,0,0,0,0,0,0,0,0,0,0,0,0,0,0,0,0,0,0,0,0,0,0,0,0,0,0,0,0,0,0,0,0,0,0,0,0,0,0,0,0,0,0,0,0,0,0],"sum_hessian":[8.70034E2,4.6108792E2,4.0894608E2,1.9155814E2,2.695298E2,2.9647327E2,1.1247283E2,4.331809E1,1.4824005E2,2.4309236E2,2.6437418E1,2.808624E2,1.5610874E1,4.9885056E1,6.2587776E1,2.5936161E1,1.738193E1,9.211767E1,5.6122383E1,4.551437E1,1.9757799E2,4.9728813E0,2.1464537E1,2.7760974E2,3.2526436E0,7.483725E0,8.127149E0,9.374279E0,4.0510777E1,5.8872906E1,3.7148685E0,8.081666E0,1.7854494E1,3.175965E0,8.89417E1,2.3412243E1,3.2710136E1,2.276727E1,2.27471E1,1.8922893E2,8.34906E0,5.2782702E0,2.7233148E2,3.0279822E0,6.346297E0,3.0697756E0,3.7440998E1,5.038887E0,5.383402E1],"tree_param":{"num_deleted":"0","num_feature":"556","num_nodes":"49","size_leaf_vector":"1"}},{"base_weights":[-8.602042E-3,4.6966395E-1,-3.9201975E-1,-4.5315713E-2,9.615755E-1,-5.8195233E-1,2.8706306E-1,4.1846672E-1,-4.4974557E-1,1.1102086E0,3.5969025E-1,-6.446395E-1,-2.9950798E-1,-2.7347067E-1,8.5683256E-1,-3.6641526E-1,7.8400993E-1,-5.735836E-1,6.33217E-1,3.028176E-1,1.1966282E0,-2.8528942E-2,7.2293055E-1,-0E0,-6.6522354E-1,4.5206204E-1,-6.021092E-1,-5.2375716E-1,8.549279E-1,-3.611403E-1,1.1363451E0,4.672289E-2,-3.22885E-2,5.064052E-2,3.1566229E-3,-3.2025483E-2,1.6491136E-2,5.093146E-2,-5.997554E-3,4.661907E-2,-2.9664403E-2,6.1093856E-2,1.651644E-2,4.7071334E-2,-2.639705E-2,-2.8386164E-2,4.9195834E-2,-3.3877097E-2,1.5703583E-2,-5.715018E-3,5.7717647E-2,1.2246638E-2,-3.365387E-2,6.221698E-3,-3.1932767E-2,5.577546E-3,5.663049E-2,6.117182E-3,-2.9169155E-2,4.4365916E-3,6.0613353E-2],"categories":[],"categories_nodes":[],"categories_segments":[],"categories_sizes":[],"default_left":[0,0,0,0,0,0,0,0,0,0,0,0,0,0,0,0,0,0,0,0,0,0,0,0,0,0,0,0,0,0,0,0,0,0,0,0,0,0,0,0,0,0,0,0,0,0,0,0,0,0,0,0,0,0,0,0,0,0,0,0,0],"id":11,"left_children":[1,3,5,7,9,11,13,15,17,19,21,23,25,27,29,31,33,35,37,39,41,-1,43,45,47,49,51,53,55,57,59,-1,-1,-1,-1,-1,-1,-1,-1,-1,-1,-1,-1,-1,-1,-1,-1,-1,-1,-1,-1,-1,-1,-1,-1,-1,-1,-1,-1,-1,-1],"loss_changes":[1.6092888E2,9.905767E1,6.312123E1,3.631086E1,1.713211E1,6.367859E0,3.470296E1,2.6331738E1,1.4410908E1,1.0429611E1,1.4802403E1,4.184845E0,1.6878794E1,1.6221283E1,1.8974857E1,1.1623567E1,1.0031876E1,6.012697E0,3.5371718E0,1.075522E1,2.3755646E0,0E0,9.230509E0,7.0010486E0,3.9868927E0,8.86614E0,3.4354458E0,3.6085434E0,1.8563538E0,1.3453243E0,3.2165756E0,0E0,0E0,0E0,0E0,0E0,0E0,0E0,0E0,0E0,0E0,0E0,0E0,0E0,0E0,0E0,0E0,0E0,0E0,0E0,0E0,0E0,0E0,0E0,0E0,0E0,0E0,0E0,0E0,0E0,0E0],"parents":[2147483647,0,0,1,1,2,2,3,3,4,4,5,5,6,6,7,7,8,8,9,9,10,10,11,11,12,12,13,13,14,14,15,15,16,16,17,17,18,18,19,19,20,20,22,22,23,23,24,24,25,25,26,26,27,27,28,28,29,29,30,30],"right_children":[2,4,6,8,10,12,14,16,18,20,22,24,26,28,30,32,34,36,38,40,42,-1,44,46,48,50,52,54,56,58,60,-1,-1,-1,-1,-1,-1,-1,-1,-1,-1,-1,-1,-1,-1,-1,-1,-1,-1,-1,-1,-1,-1,-1,-1,-1,-1,-1,-1,-1,-1],"split_conditions":[-1.8684316E-1,-2.4794379E-1,-2.7262729E-2,-2.2948812E-1,-2.4171561E-1,-5.2004468E-2,2.196814E-2,-2.2624673E-1,-1.5760767E-1,-1.3272724E-1,-1.871804E-1,-1.1573924E-1,-1.5448134E-1,7.9165375E-1,-1.9811934E-1,-2.4011323E-1,2.9874775E-1,1.5771204E0,-2.3504607E-1,-2.5160712E-1,2.5045285E0,-2.8528942E-2,2.65981E-1,-8.677535E-3,2.9756331E0,-6.703098E-2,-1.0948709E0,-6.115427E-1,5.4792E-1,2.8524184E-1,-7.175959E-1,4.672289E-2,-3.22885E-2,5.064052E-2,3.1566229E-3,-3.2025483E-2,1.6491136E-2,5.093146E-2,-5.997554E-3,4.661907E-2,-2.9664403E-2,6.1093856E-2,1.651644E-2,4.7071334E-2,-2.639705E-2,-2.8386164E-2,4.9195834E-2,-3.3877097E-2,1.5703583E-2,-5.715018E-3,5.7717647E-2,1.2246638E-2,-3.365387E-2,6.221698E-3,-3.1932767E-2,5.577546E-3,5.663049E-2,6.117182E-3,-2.9169155E-2,4.4365916E-3,6.0613353E-2],"split_indices":[454,294,305,451,448,309,418,431,425,307,291,373,449,6,481,450,528,551,450,447,136,0,282,45,98,293,57,75,125,129,44,0,0,0,0,0,0,0,0,0,0,0,0,0,0,0,0,0,0,0,0,0,0,0,0,0,0,0,0,0,0],"split_type":[0,0,0,0,0,0,0,0,0,0,0,0,0,0,0,0,0,0,0,0,0,0,0,0,0,0,0,0,0,0,0,0,0,0,0,0,0,0,0,0,0,0,0,0,0,0,0,0,0,0,0,0,0,0,0,0,0,0,0,0,0],"sum_hessian":[8.746276E2,3.8891107E2,4.8571652E2,1.9056651E2,1.9834456E2,3.7984073E2,1.0587579E2,8.863009E1,1.0193643E2,1.579151E2,4.0429462E1,3.0898532E2,7.085541E1,5.3675198E1,5.22006E1,2.8073809E1,6.055628E1,9.219203E1,9.744396E0,1.6033382E1,1.4188171E2,1.1035562E1,2.9393902E1,9.460662E0,2.9952466E2,2.0031607E1,5.0823803E1,4.466138E1,9.013816E0,9.594939E0,4.260566E1,4.2777987E0,2.3796011E1,4.54004E1,1.5155879E1,8.6342804E1,5.849229E0,6.183996E0,3.5604E0,9.447126E0,6.5862556E0,1.3715317E2,4.728553E0,2.5406958E1,3.9869444E0,6.3385835E0,3.1220787E0,2.963611E2,3.1635556E0,1.1705326E1,8.326281E0,3.5358295E0,4.7287975E1,6.5748653E0,3.8086514E1,3.1210952E0,5.89272E0,3.0922093E0,6.5027294E0,3.1878707E0,3.941779E1],"tree_param":{"num_deleted":"0","num_feature":"556","num_nodes":"61","size_leaf_vector":"1"}},{"base_weights":[-7.831959E-3,-2.5942582E-1,7.2898877E-1,2.6520932E-1,-4.6591723E-1,9.515589E-1,1.1570266E-1,-1.5893574E-1,8.4929603E-1,-5.794579E-1,1.2598228E-1,-2.0735206E-2,1.0040715E0,-2.8019112E-1,8.8557106E-1,-3.623567E-1,6.998841E-1,-2.2523926E-1,1.0214027E0,-5.951786E-1,4.216696E-2,7.074076E-1,-3.5330406E-1,1.0649776E0,-1.726313E-1,-6.007557E-1,4.727302E-2,5.4650772E-2,-5.080804E-3,1.1250018E-2,-3.0263994E-2,-2.5032545E-2,4.9308147E-2,-2.9524568E-2,2.54212E-2,5.4931093E-2,-7.6615475E-3,2.941876E-2,-3.0569706E-2,4.8101373E-2,-2.133595E-2,-2.7651131E-2,3.7767783E-2,2.0844897E-2,5.7006683E-2,-2.6343483E-2,1.51536735E-2,5.94895E-3,-3.4130577E-2],"categories":[],"categories_nodes":[],"categories_segments":[],"categories_sizes":[],"default_left":[0,0,0,0,0,0,0,0,0,0,0,0,0,0,0,0,0,0,0,0,0,0,0,0,0,0,0,0,0,0,0,0,0,0,0,0,0,0,0,0,0,0,0,0,0,0,0,0,0],"id":12,"left_children":[1,3,5,7,9,11,13,15,17,19,21,-1,23,25,27,29,31,33,35,37,-1,39,41,43,45,47,-1,-1,-1,-1,-1,-1,-1,-1,-1,-1,-1,-1,-1,-1,-1,-1,-1,-1,-1,-1,-1,-1,-1],"loss_changes":[1.6229425E2,7.093374E1,3.01418E1,4.615538E1,3.1685196E1,1.2389221E1,1.9072607E1,1.9294971E1,1.4896015E1,9.542313E0,2.1757254E1,0E0,1.1661758E1,1.7100048E1,4.610359E0,1.290865E1,8.071184E0,3.6612835E0,6.496704E0,8.040344E0,0E0,1.0836164E1,1.010436E1,6.445038E0,1.7729785E0,2.17138E0,0E0,0E0,0E0,0E0,0E0,0E0,0E0,0E0,0E0,0E0,0E0,0E0,0E0,0E0,0E0,0E0,0E0,0E0,0E0,0E0,0E0,0E0,0E0],"parents":[2147483647,0,0,1,1,2,2,3,3,4,4,5,5,6,6,7,7,8,8,9,9,10,10,12,12,13,13,14,14,15,15,16,16,17,17,18,18,19,19,21,21,22,22,23,23,24,24,25,25],"right_children":[2,4,6,8,10,12,14,16,18,20,22,-1,24,26,28,30,32,34,36,38,-1,40,42,44,46,48,-1,-1,-1,-1,-1,-1,-1,-1,-1,-1,-1,-1,-1,-1,-1,-1,-1,-1,-1,-1,-1,-1,-1],"split_conditions":[5.110273E-1,-6.5997833E-1,3.5223958E-1,-3.0049251E-2,1.123821E-1,-8.402635E-1,5.720112E-1,-7.4755654E-2,-1.4635855E-1,2.9076898E0,-1.3405672E-1,-2.0735206E-2,1.3664886E0,1.6730405E0,-1.9247827E-1,-1.938943E-1,-8.0894184E-1,2.2705534E-1,1.8027073E0,-1.721283E0,4.216696E-2,1.1463916E0,1.1222346E0,-2.7985558E-1,-7.168154E-1,-9.225012E-1,4.727302E-2,5.4650772E-2,-5.080804E-3,1.1250018E-2,-3.0263994E-2,-2.5032545E-2,4.9308147E-2,-2.9524568E-2,2.54212E-2,5.4931093E-2,-7.6615475E-3,2.941876E-2,-3.0569706E-2,4.8101373E-2,-2.133595E-2,-2.7651131E-2,3.7767783E-2,2.0844897E-2,5.7006683E-2,-2.6343483E-2,1.51536735E-2,5.94895E-3,-3.4130577E-2],"split_indices":[47,124,124,48,404,537,4,127,392,104,419,0,164,238,431,464,12,74,22,42,0,200,139,268,201,45,0,0,0,0,0,0,0,0,0,0,0,0,0,0,0,0,0,0,0,0,0,0,0],"split_type":[0,0,0,0,0,0,0,0,0,0,0,0,0,0,0,0,0,0,0,0,0,0,0,0,0,0,0,0,0,0,0,0,0,0,0,0,0,0,0,0,0,0,0,0,0,0,0,0,0],"sum_hessian":[8.72693E2,6.5138086E2,2.2131209E2,1.8371167E2,4.6766922E2,1.6165486E2,5.965723E1,1.0696079E2,7.675088E1,3.92566E2,7.510319E1,5.52985E0,1.5612502E2,3.994188E1,1.9715351E1,8.727282E1,1.9687977E1,1.0451795E1,6.629908E1,3.892084E2,3.3576086E0,3.3707325E1,4.1395866E1,1.4865787E2,7.46714E0,3.2331944E1,7.6099367E0,1.6242664E1,3.4726872E0,2.5446198E1,6.182662E1,3.507294E0,1.6180683E1,7.264304E0,3.1874902E0,6.2380463E1,3.9186203E0,4.461672E0,3.8474673E2,2.7785145E1,5.92218E0,3.57904E1,5.6054645E0,1.6606762E1,1.3205112E2,4.3080144E0,3.1591258E0,3.1074142E0,2.9224527E1],"tree_param":{"num_deleted":"0","num_feature":"556","num_nodes":"49","size_leaf_vector":"1"}},{"base_weights":[8.596552E-3,-3.469116E-1,4.488451E-1,-4.6030337E-1,3.109644E-1,7.8300804E-1,-3.3047843E-1,-2.4805608E-1,-6.4700603E-1,7.436817E-1,-4.858938E-1,9.7203124E-1,-1.4220233E-1,-5.2429247E-1,2.9027373E-1,-4.2373228E-1,3.2081127E-1,-9.03819E-3,-6.847465E-1,1.0109752E0,-1.4958666E-2,1.9439176E-2,-3.286031E-2,-1.8881416E-2,1.062307E0,-3.3515967E-2,5.6086624E-1,3.280271E-1,-6.08567E-1,-3.7842658E-1,7.059543E-1,-2.8135462E-5,-3.0344848E-2,4.9616303E-2,-2.0930456E-2,-2.885603E-2,3.7785918E-2,-3.4679957E-2,-4.66849E-3,-1.6462228E-3,5.5664457E-2,-2.9536659E-2,4.5427725E-2,4.510214E-2,-2.836052E-2,-1.6316101E-2,5.446586E-2,5.487457E-2,-1.4741259E-2,4.5344573E-2,-2.2997683E-2,-3.3038236E-2,5.2290396E-3,6.2284647E-3,-2.9072544E-2,5.2340697E-2,-5.895993E-3],"categories":[],"categories_nodes":[],"categories_segments":[],"categories_sizes":[],"default_left":[0,0,0,0,0,0,0,0,0,0,0,0,0,0,0,0,0,0,0,0,0,0,0,0,0,0,0,0,0,0,0,0,0,0,0,0,0,0,0,0,0,0,0,0,0,0,0,0,0,0,0,0,0,0,0,0,0],"id":13,"left_children":[1,3,5,7,9,11,13,15,17,19,21,23,25,27,29,31,33,35,37,39,41,-1,-1,43,45,-1,47,49,51,53,55,-1,-1,-1,-1,-1,-1,-1,-1,-1,-1,-1,-1,-1,-1,-1,-1,-1,-1,-1,-1,-1,-1,-1,-1,-1,-1],"loss_changes":[1.378619E2,3.6572067E1,1.0293593E2,1.6166069E1,2.5529114E1,4.856172E1,1.4579136E1,1.9951656E1,5.225281E0,9.772297E0,4.351267E0,2.0661957E1,1.8413477E1,6.8933334E0,8.543902E0,1.16954365E1,2.4176254E1,6.706358E0,9.12117E-1,3.9342651E0,8.100205E0,0E0,0E0,1.110683E1,8.502182E0,0E0,1.0366301E1,4.8179607E0,3.279316E0,1.386842E0,5.5038223E0,0E0,0E0,0E0,0E0,0E0,0E0,0E0,0E0,0E0,0E0,0E0,0E0,0E0,0E0,0E0,0E0,0E0,0E0,0E0,0E0,0E0,0E0,0E0,0E0,0E0,0E0],"parents":[2147483647,0,0,1,1,2,2,3,3,4,4,5,5,6,6,7,7,8,8,9,9,10,10,11,11,12,12,13,13,14,14,15,15,16,16,17,17,18,18,19,19,20,20,23,23,24,24,26,26,27,27,28,28,29,29,30,30],"right_children":[2,4,6,8,10,12,14,16,18,20,22,24,26,28,30,32,34,36,38,40,42,-1,-1,44,46,-1,48,50,52,54,56,-1,-1,-1,-1,-1,-1,-1,-1,-1,-1,-1,-1,-1,-1,-1,-1,-1,-1,-1,-1,-1,-1,-1,-1,-1,-1],"split_conditions":[8.4949724E-2,-8.408508E-2,-2.1393196E-1,-7.4755654E-2,-5.2471723E-2,3.6961952E-1,4.847948E-2,-1.8451585E-1,-1.0982745E0,-3.7718065E-2,-1.2812671E-1,-2.184793E-1,-9.426633E-2,-8.953147E-1,-1.6035958E-1,-2.5777143E-1,-2.2325581E-1,-6.870162E-1,1.9131268E0,-1.01368956E-1,-1.0170386E-1,1.9439176E-2,-3.286031E-2,-9.514528E-2,-6.7800635E-1,-3.3515967E-2,-3.6791113E-1,8.3165705E-2,-2.0558032E-1,-2.874578E-1,-1.06609404E-1,-2.8135462E-5,-3.0344848E-2,4.9616303E-2,-2.0930456E-2,-2.885603E-2,3.7785918E-2,-3.4679957E-2,-4.66849E-3,-1.6462228E-3,5.5664457E-2,-2.9536659E-2,4.5427725E-2,4.510214E-2,-2.836052E-2,-1.6316101E-2,5.446586E-2,5.487457E-2,-1.4741259E-2,4.5344573E-2,-2.2997683E-2,-3.3038236E-2,5.2290396E-3,6.2284647E-3,-2.9072544E-2,5.2340697E-2,-5.895993E-3],"split_indices":[42,503,283,127,309,127,541,454,535,276,267,456,541,529,454,411,282,230,187,366,461,0,0,300,249,0,542,170,249,142,411,0,0,0,0,0,0,0,0,0,0,0,0,0,0,0,0,0,0,0,0,0,0,0,0,0,0],"split_type":[0,0,0,0,0,0,0,0,0,0,0,0,0,0,0,0,0,0,0,0,0,0,0,0,0,0,0,0,0,0,0,0,0,0,0,0,0,0,0,0,0,0,0,0,0,0,0,0,0,0,0,0,0,0,0,0,0],"sum_hessian":[8.7778204E2,4.8567892E2,3.9210312E2,4.1478833E2,7.089059E1,2.7451584E2,1.17587296E2,1.9600008E2,2.1878827E2,4.6088676E1,2.4801908E1,2.2797253E2,4.6543293E1,8.9909515E1,2.7677776E1,1.5018027E2,4.5819813E1,1.2471873E1,2.0631639E2,3.380942E1,1.2279257E1,3.654593E0,2.1147314E1,1.904152E1,2.0893102E2,2.6699673E1,1.984362E1,7.592887E0,8.231663E1,1.05691595E1,1.7108616E1,4.5986694E1,1.0419357E2,2.381452E1,2.2005291E1,7.44231E0,5.029564E0,2.0285144E2,3.464952E0,3.0214775E0,3.0787943E1,7.963265E0,4.315992E0,6.677165E0,1.2364355E1,3.598594E0,2.0533241E2,1.2006836E1,7.836785E0,4.3199353E0,3.2729516E0,7.6935844E1,5.3807883E0,3.0643299E0,7.50483E0,1.1900519E1,5.208097E0],"tree_param":{"num_deleted":"0","num_feature":"556","num_nodes":"57","size_leaf_vector":"1"}},{"base_weights":[-6.4304816E-3,4.6933344E-1,-3.94107E-1,-3.9985023E-2,9.245908E-1,-5.519099E-1,2.9363483E-1,3.615226E-1,-5.5880994E-1,1.0142956E0,6.4604014E-2,-6.380043E-1,-2.1746807E-1,-2.9745224E-1,7.8889745E-1,-3.7812424E-1,6.5659326E-1,-6.4599913E-1,3.278607E-2,4.7792417E-1,1.1413064E0,-2.694418E-2,6.302262E-1,-2.826602E-3,-6.6109943E-1,4.4185883E-1,-6.284897E-1,-5.2140456E-1,4.6776135E-2,9.965485E-1,-2.8596679E-2,4.3587264E-2,-3.0260822E-2,4.309436E-2,-7.659614E-3,-3.4113206E-2,9.273652E-4,4.045437E-2,-3.0909786E-2,5.8183562E-2,3.1537774E-3,4.8744354E-2,-2.5284974E-4,-2.904588E-2,4.9507137E-2,1.1457446E-3,-3.3823546E-2,-2.475837E-2,3.8311783E-2,-6.4060166E-3,-3.407317E-2,1.792117E-2,-3.2273617E-2,-1.4693513E-2,5.598687E-2],"categories":[],"categories_nodes":[],"categories_segments":[],"categories_sizes":[],"default_left":[0,0,0,0,0,0,0,0,0,0,0,0,0,0,0,0,0,0,0,0,0,0,0,0,0,0,0,0,0,0,0,0,0,0,0,0,0,0,0,0,0,0,0,0,0,0,0,0,0,0,0,0,0,0,0],"id":14,"left_children":[1,3,5,7,9,11,13,15,17,19,21,23,25,27,29,31,33,35,-1,37,39,-1,41,43,45,47,49,51,-1,53,-1,-1,-1,-1,-1,-1,-1,-1,-1,-1,-1,-1,-1,-1,-1,-1,-1,-1,-1,-1,-1,-1,-1,-1,-1],"loss_changes":[1.6221095E2,9.168279E1,5.2874336E1,3.941522E1,1.5887863E1,1.10767975E1,2.7135422E1,2.3664305E1,9.377918E0,1.1875626E1,7.827798E0,4.5229263E0,2.30252E1,1.246191E1,1.5080589E1,9.635393E0,1.3043396E1,1.9620056E0,0E0,1.4875785E1,3.4168549E0,0E0,2.6946855E0,8.078195E0,3.2628326E0,1.0565062E1,1.1680279E0,4.426589E0,0E0,7.595745E0,0E0,0E0,0E0,0E0,0E0,0E0,0E0,0E0,0E0,0E0,0E0,0E0,0E0,0E0,0E0,0E0,0E0,0E0,0E0,0E0,0E0,0E0,0E0,0E0,0E0],"parents":[2147483647,0,0,1,1,2,2,3,3,4,4,5,5,6,6,7,7,8,8,9,9,10,10,11,11,12,12,13,13,14,14,15,15,16,16,17,17,19,19,20,20,22,22,23,23,24,24,25,25,26,26,27,27,29,29],"right_children":[2,4,6,8,10,12,14,16,18,20,22,24,26,28,30,32,34,36,-1,38,40,-1,42,44,46,48,50,52,-1,54,-1,-1,-1,-1,-1,-1,-1,-1,-1,-1,-1,-1,-1,-1,-1,-1,-1,-1,-1,-1,-1,-1,-1,-1,-1],"split_conditions":[-1.8663284E-1,-2.4827789E-1,2.0159423E-2,-2.330933E-1,-2.0121713E-1,-5.2004468E-2,2.196814E-2,-2.2624673E-1,-1.9470954E-1,-7.4094E-2,-1.6119608E-1,-1.1573924E-1,-1.7993525E-1,7.6322335E-1,6.5815586E-1,-2.4918124E-1,-1.8292604E-1,1.5755088E0,3.278607E-2,-2.3798457E-1,-9.323894E-2,-2.694418E-2,-2.426224E-1,9.1240597E-1,-2.037856E0,-1.09997004E-1,-1.226501E0,-2.204378E-1,4.6776135E-2,-2.0392849E-1,-2.8596679E-2,4.3587264E-2,-3.0260822E-2,4.309436E-2,-7.659614E-3,-3.4113206E-2,9.273652E-4,4.045437E-2,-3.0909786E-2,5.8183562E-2,3.1537774E-3,4.8744354E-2,-2.5284974E-4,-2.904588E-2,4.9507137E-2,1.1457446E-3,-3.3823546E-2,-2.475837E-2,3.8311783E-2,-6.4060166E-3,-3.407317E-2,1.792117E-2,-3.2273617E-2,-1.4693513E-2,5.598687E-2],"split_indices":[454,294,305,323,320,309,418,431,298,308,346,373,451,6,46,319,442,121,0,320,317,0,275,125,81,490,113,450,0,481,0,0,0,0,0,0,0,0,0,0,0,0,0,0,0,0,0,0,0,0,0,0,0,0,0],"split_type":[0,0,0,0,0,0,0,0,0,0,0,0,0,0,0,0,0,0,0,0,0,0,0,0,0,0,0,0,0,0,0,0,0,0,0,0,0,0,0,0,0,0,0,0,0,0,0,0,0,0,0,0,0,0,0],"sum_hessian":[8.7650275E2,3.932837E2,4.8321902E2,1.8616287E2,2.0712082E2,3.9339575E2,8.9823296E1,1.05094505E2,8.106837E1,1.8720784E2,1.9912985E1,3.1153714E2,8.18586E1,4.113117E1,4.8692123E1,2.9752785E1,7.534172E1,7.637036E1,4.698001E0,3.736129E1,1.4984654E2,9.58279E0,1.0330194E1,1.1141104E1,3.0039603E2,3.1297653E1,5.0560947E1,3.5609917E1,5.521254E0,4.2657917E1,6.0342073E0,3.8522632E0,2.590052E1,6.012582E1,1.5215899E1,7.2523186E1,3.8471785E0,2.9064314E1,8.296976E0,1.4659425E2,3.2522907E0,6.2791266E0,4.0510683E0,7.498663E0,3.6424408E0,6.443117E0,2.939529E2,7.765993E0,2.353166E1,5.5120335E0,4.5048912E1,3.9511154E0,3.16588E1,3.4655719E0,3.9192345E1],"tree_param":{"num_deleted":"0","num_feature":"556","num_nodes":"55","size_leaf_vector":"1"}},{"base_weights":[1.2985757E-2,-2.240163E-1,5.7770675E-1,2.5039625E-1,-5.327652E-1,9.324409E-1,-8.159602E-2,-1.2954485E-1,7.90206E-1,-5.716473E-1,4.304116E-2,1.0440524E0,1.508271E-1,-6.125939E-1,4.0388143E-1,5.2135587E-1,-4.2495757E-1,7.4999765E-2,9.982056E-1,-6.338396E-1,-3.522359E-3,-1.42268585E-2,1.076917E0,-2.4642738E-2,5.8015776E-1,-3.3755176E-2,-0E0,5.3795245E-2,-2.3825277E-1,4.38541E-2,-1.5925812E-2,4.5494083E-2,-2.4641626E-2,4.004555E-2,-2.8276613E-2,-4.170619E-3,5.233687E-2,-6.8329955E-3,-3.301286E-2,4.092216E-2,-2.6688216E-2,1.2219038E-2,5.558697E-2,-1.6433518E-2,4.836895E-2,-3.0037919E-2,3.601528E-2],"categories":[],"categories_nodes":[],"categories_segments":[],"categories_sizes":[],"default_left":[0,0,0,0,0,0,0,0,0,0,0,0,0,0,0,0,0,0,0,0,0,0,0,0,0,0,0,0,0,0,0,0,0,0,0,0,0,0,0,0,0,0,0,0,0,0,0],"id":15,"left_children":[1,3,5,7,9,11,13,15,17,19,-1,21,23,25,27,29,31,33,35,37,39,-1,41,-1,43,-1,-1,-1,45,-1,-1,-1,-1,-1,-1,-1,-1,-1,-1,-1,-1,-1,-1,-1,-1,-1,-1],"loss_changes":[1.16499214E2,8.999806E1,6.038791E1,4.9956795E1,2.0858826E1,1.4260284E1,2.3930159E1,2.7917305E1,1.4730656E1,1.2749611E1,0E0,6.9243927E0,6.738558E0,1.6332893E0,2.1399311E1,1.4029118E1,9.658686E0,1.2035371E1,4.302063E0,4.0770264E0,1.6952543E1,0E0,3.6054535E0,0E0,5.6294184E0,0E0,0E0,0E0,9.656305E0,0E0,0E0,0E0,0E0,0E0,0E0,0E0,0E0,0E0,0E0,0E0,0E0,0E0,0E0,0E0,0E0,0E0,0E0],"parents":[2147483647,0,0,1,1,2,2,3,3,4,4,5,5,6,6,7,7,8,8,9,9,11,11,12,12,13,13,14,14,15,15,16,16,17,17,18,18,19,19,20,20,22,22,24,24,28,28],"right_children":[2,4,6,8,10,12,14,16,18,20,-1,22,24,26,28,30,32,34,36,38,40,-1,42,-1,44,-1,-1,-1,46,-1,-1,-1,-1,-1,-1,-1,-1,-1,-1,-1,-1,-1,-1,-1,-1,-1,-1],"split_conditions":[-1.9344018E-1,-1.4215825E-1,-8.5062824E-2,1.4191452E-1,2.3287935E0,3.8370547E-1,-2.0106749E-1,-8.695707E-1,-4.452443E-1,-1.21865325E-1,4.304116E-2,-3.321472E-2,-8.0066815E-2,7.63685E-1,-8.74296E-2,-2.1472386E-1,-1.7433528E0,-2.2144857E-1,-1.6743656E0,-1.2426473E0,-1.6044751E-1,-1.42268585E-2,-1.4741579E-1,-2.4642738E-2,-2.2770117E-1,-3.3755176E-2,-0E0,5.3795245E-2,1.7529242E0,4.38541E-2,-1.5925812E-2,4.5494083E-2,-2.4641626E-2,4.004555E-2,-2.8276613E-2,-4.170619E-3,5.233687E-2,-6.8329955E-3,-3.301286E-2,4.092216E-2,-2.6688216E-2,1.2219038E-2,5.558697E-2,-1.6433518E-2,4.836895E-2,-3.0037919E-2,3.601528E-2],"split_indices":[280,338,303,127,96,124,446,124,5,411,0,514,313,172,494,203,135,431,16,203,299,0,329,0,403,0,0,0,74,0,0,0,0,0,0,0,0,0,0,0,0,0,0,0,0,0,0],"split_type":[0,0,0,0,0,0,0,0,0,0,0,0,0,0,0,0,0,0,0,0,0,0,0,0,0,0,0,0,0,0,0,0,0,0,0,0,0,0,0,0,0,0,0,0,0,0,0],"sum_hessian":[8.6722156E2,6.113698E2,2.5585173E2,2.4100688E2,3.7036295E2,1.6604332E2,8.980842E1,1.420094E2,9.899749E1,3.6124054E2,9.122394E0,1.4474298E2,2.1300339E1,4.2804077E1,4.700434E1,4.3867565E1,9.814183E1,2.2872402E1,7.6125084E1,3.2528253E2,3.595802E1,3.1432729E0,1.415997E2,8.3406315E0,1.2959706E1,3.8563076E1,4.2410016E0,2.2548618E1,2.445572E1,3.0852617E1,1.301495E1,3.7772202E0,9.436461E1,1.0618765E1,1.2253638E1,3.1342478E0,7.299084E1,1.706996E1,3.0821255E2,1.3706586E1,2.2251434E1,6.2830305E0,1.3531667E2,3.8625846E0,9.097122E0,1.8226927E1,6.2287946E0],"tree_param":{"num_deleted":"0","num_feature":"556","num_nodes":"47","size_leaf_vector":"1"}},{"base_weights":[-1.1078908E-2,-3.5916376E-1,4.1648492E-1,-5.8752745E-1,-6.2152307E-2,7.31597E-1,-3.2725313E-1,3.5042542E-1,-6.1278236E-1,-3.1141573E-1,6.064404E-1,8.9873344E-1,-1.0113518E-1,-4.9940085E-1,5.0940055E-1,3.2203108E-2,-2.6893776E-3,2.2049071E-2,-6.3019866E-1,8.284455E-1,-4.08917E-1,8.5726404E-1,-2.5593093E-2,-2.591798E-2,9.567418E-1,-5.011326E-1,8.803622E-1,-5.6714225E-1,2.3181321E-2,5.1569767E-2,-2.7553095E-2,-3.201537E-2,5.9347E-3,5.4831874E-2,3.4834896E-3,-2.270398E-2,3.7710235E-2,5.3171873E-2,-0E0,-2.7127406E-2,4.9720015E-2,-3.319789E-2,3.485532E-2,5.1563866E-2,1.2266423E-2,-3.204579E-2,-6.210652E-3],"categories":[],"categories_nodes":[],"categories_segments":[],"categories_sizes":[],"default_left":[0,0,0,0,0,0,0,0,0,0,0,0,0,0,0,0,0,0,0,0,0,0,0,0,0,0,0,0,0,0,0,0,0,0,0,0,0,0,0,0,0,0,0,0,0,0,0],"id":16,"left_children":[1,3,5,7,9,11,13,15,17,19,21,23,25,27,29,-1,-1,-1,31,33,35,37,-1,-1,39,41,43,45,-1,-1,-1,-1,-1,-1,-1,-1,-1,-1,-1,-1,-1,-1,-1,-1,-1,-1,-1],"loss_changes":[1.2787544E2,3.2013252E1,9.074386E1,6.6839066E0,3.4883602E1,3.7979553E1,1.7039423E1,1.0442823E0,5.227585E0,1.7410513E1,1.6633503E1,1.9384186E1,1.892005E1,6.7185707E0,1.2182589E1,0E0,0E0,0E0,2.1159973E0,2.297945E0,7.9183826E0,8.294926E0,0E0,0E0,1.3158646E1,7.351388E0,8.3120537E-1,2.7839699E0,0E0,0E0,0E0,0E0,0E0,0E0,0E0,0E0,0E0,0E0,0E0,0E0,0E0,0E0,0E0,0E0,0E0,0E0,0E0],"parents":[2147483647,0,0,1,1,2,2,3,3,4,4,5,5,6,6,7,7,8,8,9,9,10,10,11,11,12,12,13,13,14,14,18,18,19,19,20,20,21,21,24,24,25,25,26,26,27,27],"right_children":[2,4,6,8,10,12,14,16,18,20,22,24,26,28,30,-1,-1,-1,32,34,36,38,-1,-1,40,42,44,46,-1,-1,-1,-1,-1,-1,-1,-1,-1,-1,-1,-1,-1,-1,-1,-1,-1,-1,-1],"split_conditions":[8.4949724E-2,1.1883088E-1,-2.3794603E-1,-1.5135603E0,-1.15014195E-1,4.1950864E-1,2.4329131E-2,3.7977058E-1,-1.2033496E0,-1.244341E0,-8.6147994E-2,-1.2390894E0,4.5943975E-1,1.2720357E0,-1.6390634E-1,3.2203108E-2,-2.6893776E-3,2.2049071E-2,2.5115714E0,4.047572E-1,1.7634323E0,-3.7701137E-2,-2.5593093E-2,-2.591798E-2,-6.6867965E-1,7.8713673E-1,1.343695E0,-2.773193E-1,2.3181321E-2,5.1569767E-2,-2.7553095E-2,-3.201537E-2,5.9347E-3,5.4831874E-2,3.4834896E-3,-2.270398E-2,3.7710235E-2,5.3171873E-2,-0E0,-2.7127406E-2,4.9720015E-2,-3.319789E-2,3.485532E-2,5.1563866E-2,1.2266423E-2,-3.204579E-2,-6.210652E-3],"split_indices":[42,8,281,41,502,127,495,144,151,125,410,202,204,174,284,0,0,0,222,259,25,267,0,0,250,539,124,251,0,0,0,0,0,0,0,0,0,0,0,0,0,0,0,0,0,0,0],"split_type":[0,0,0,0,0,0,0,0,0,0,0,0,0,0,0,0,0,0,0,0,0,0,0,0,0,0,0,0,0,0,0,0,0,0,0,0,0,0,0,0,0,0,0,0,0,0,0],"sum_hessian":[8.5624426E2,4.7225204E2,3.8399222E2,2.6595947E2,2.0629257E2,2.698284E2,1.1416382E2,6.363149E0,2.595963E2,1.5096208E2,5.533049E1,2.2472531E2,4.510309E1,9.528284E1,1.8880983E1,3.313455E0,3.049694E0,3.534286E0,2.5606204E2,1.0928551E1,1.4003354E2,4.5552982E1,9.777507E0,8.30141E0,2.164239E2,3.2637917E1,1.2465172E1,8.969403E1,5.5888047E0,1.2743583E1,6.1374E0,2.5299803E2,3.0640042E0,7.4837084E0,3.4448423E0,1.3576244E2,4.2711053E0,3.6411636E1,9.141348E0,4.7450247E0,2.1167888E2,2.9395706E1,3.2422087E0,9.18818E0,3.2769918E0,7.611945E1,1.3574575E1],"tree_param":{"num_deleted":"0","num_feature":"556","num_nodes":"47","size_leaf_vector":"1"}},{"base_weights":[-2.1425888E-2,4.3262908E-1,-4.0053892E-1,-6.9957905E-2,8.776666E-1,-5.340059E-1,3.8509265E-1,3.1188077E-1,-4.2344922E-1,9.7436816E-1,4.332722E-2,-2.3556475E-1,-6.229997E-1,-2.9238728E-1,9.650694E-1,-4.2521697E-1,6.186615E-1,-6.120548E-1,6.4758027E-1,-5.6837205E-2,1.042783E0,4.3427527E-2,-3.696272E-1,-5.1010454E-1,6.105253E-1,-6.5688676E-1,-1.237951E-1,3.8907997E-2,-5.211767E-1,-1.257423E-2,5.4297186E-2,2.8994102E-2,-3.1198686E-2,-5.63418E-3,4.019035E-2,-3.278914E-2,1.569743E-2,4.8262335E-2,-1.42269E-2,-3.07849E-2,4.424285E-2,5.380695E-2,1.5387072E-3,-3.186705E-2,2.2851164E-2,-3.0341098E-2,1.5465711E-2,-1.9005775E-2,4.557454E-2,-3.3325695E-2,1.0694356E-3,2.5590936E-2,-3.0603146E-2,-3.2828704E-2,1.8854728E-2],"categories":[],"categories_nodes":[],"categories_segments":[],"categories_sizes":[],"default_left":[0,0,0,0,0,0,0,0,0,0,0,0,0,0,0,0,0,0,0,0,0,0,0,0,0,0,0,0,0,0,0,0,0,0,0,0,0,0,0,0,0,0,0,0,0,0,0,0,0,0,0,0,0,0,0],"id":17,"left_children":[1,3,5,7,9,11,13,15,17,19,21,23,25,27,29,31,33,35,37,39,41,-1,43,45,47,49,51,-1,53,-1,-1,-1,-1,-1,-1,-1,-1,-1,-1,-1,-1,-1,-1,-1,-1,-1,-1,-1,-1,-1,-1,-1,-1,-1,-1],"loss_changes":[1.4706345E2,8.7105934E1,4.9152206E1,2.5019999E1,1.6483734E1,1.0285645E1,2.7360886E1,2.0560143E1,2.0028194E1,1.3220963E1,8.40676E0,2.235516E1,4.9767227E0,8.570614E0,5.9740295E0,5.936178E0,8.818935E0,3.6903343E0,4.9384437E0,7.54008E0,5.6935577E0,0E0,4.0785303E0,6.024042E0,7.6356945E0,1.9536209E0,7.1488824E0,0E0,3.786065E0,0E0,0E0,0E0,0E0,0E0,0E0,0E0,0E0,0E0,0E0,0E0,0E0,0E0,0E0,0E0,0E0,0E0,0E0,0E0,0E0,0E0,0E0,0E0,0E0,0E0,0E0],"parents":[2147483647,0,0,1,1,2,2,3,3,4,4,5,5,6,6,7,7,8,8,9,9,10,10,11,11,12,12,13,13,14,14,15,15,16,16,17,17,18,18,19,19,20,20,22,22,23,23,24,24,25,25,26,26,28,28],"right_children":[2,4,6,8,10,12,14,16,18,20,22,24,26,28,30,32,34,36,38,40,42,-1,44,46,48,50,52,-1,54,-1,-1,-1,-1,-1,-1,-1,-1,-1,-1,-1,-1,-1,-1,-1,-1,-1,-1,-1,-1,-1,-1,-1,-1,-1,-1],"split_conditions":[-1.8634647E-1,-2.4794379E-1,1.0013282E-1,-2.5095087E-1,-2.0464124E-1,-1.7054148E-1,-7.458528E-2,-2.2624673E-1,-1.5760767E-1,-6.518239E-2,-2.6427367E-1,-1.2880667E-1,-1.8222002E-2,-2.3058666E-1,-1.5904252E-1,-1.495637E0,-4.0086764E-3,1.2440369E0,9.380583E-1,3.1220558E-1,1.7536272E0,4.3427527E-2,1.1799613E0,-1.329745E-1,-3.0386248E-1,2.3872557E0,-1.2363454E-1,3.8907997E-2,3.3965367E-1,-1.257423E-2,5.4297186E-2,2.8994102E-2,-3.1198686E-2,-5.63418E-3,4.019035E-2,-3.278914E-2,1.569743E-2,4.8262335E-2,-1.42269E-2,-3.07849E-2,4.424285E-2,5.380695E-2,1.5387072E-3,-3.186705E-2,2.2851164E-2,-3.0341098E-2,1.5465711E-2,-1.9005775E-2,4.557454E-2,-3.3325695E-2,1.0694356E-3,2.5590936E-2,-3.0603146E-2,-3.2828704E-2,1.8854728E-2],"split_indices":[454,294,305,322,320,453,291,431,425,437,537,305,308,447,479,85,7,65,112,536,131,0,79,421,413,269,326,0,11,0,0,0,0,0,0,0,0,0,0,0,0,0,0,0,0,0,0,0,0,0,0,0,0,0,0],"split_type":[0,0,0,0,0,0,0,0,0,0,0,0,0,0,0,0,0,0,0,0,0,0,0,0,0,0,0,0,0,0,0,0,0,0,0,0,0,0,0,0,0,0,0,0,0,0,0,0,0,0,0,0,0,0,0],"sum_hessian":[8.513424E2,3.871665E2,4.6417593E2,1.8231508E2,2.0485143E2,3.9729004E2,6.688588E1,8.7592255E1,9.4722824E1,1.8324174E2,2.1609678E1,9.277221E1,3.0451785E2,3.111331E1,3.577257E1,2.547611E1,6.2116146E1,8.1165886E1,1.3556936E1,1.1325569E1,1.7191618E2,6.7360425E0,1.4873636E1,7.058319E1,2.2189024E1,2.845293E2,1.998853E1,4.76731E0,2.6346E1,3.0118005E0,3.276077E1,3.6481621E0,2.182795E1,1.2557921E1,4.9558224E1,7.8026985E1,3.1389015E0,1.0151329E1,3.4056072E0,7.5000362E0,3.8255327E0,1.6624294E2,5.67325E0,1.1585962E1,3.287674E0,6.358889E1,6.9942975E0,5.0010633E0,1.7187962E1,2.8071835E2,3.8109527E0,8.563561E0,1.1424968E1,2.3342491E1,3.00351E0],"tree_param":{"num_deleted":"0","num_feature":"556","num_nodes":"55","size_leaf_vector":"1"}},{"base_weights":[-1.5342067E-4,-3.0142063E-1,6.0020113E-1,-4.8687276E-1,1.3176765E-1,8.0199534E-1,-3.6757568E-1,-4.793857E-2,-6.0537666E-1,7.887725E-1,-4.3238896E-1,-1.285347E-1,8.7120193E-1,-6.1535174E-1,4.1311914E-1,-3.524077E-1,6.4476967E-1,-6.328509E-1,3.4612373E-2,9.1360897E-1,-2.203309E-1,-5.1236284E-1,4.4770513E-2,3.3232536E-2,-3.0074814E-2,1.7563136E-1,9.4617385E-1,-3.30673E-2,-2.7263723E-3,4.7133494E-2,-2.5306702E-2,1.5348517E-3,-2.884525E-2,4.983827E-2,-8.1451965E-4,-3.2356318E-2,1.0118019E-2,-1.4166583E-2,4.875581E-2,-2.7157921E-2,1.577564E-2,-2.1144254E-3,-3.3107948E-2,-2.1410653E-2,4.767656E-2,5.078059E-2,5.9166118E-3],"categories":[],"categories_nodes":[],"categories_segments":[],"categories_sizes":[],"default_left":[0,0,0,0,0,0,0,0,0,0,0,0,0,0,0,0,0,0,0,0,0,0,0,0,0,0,0,0,0,0,0,0,0,0,0,0,0,0,0,0,0,0,0,0,0,0,0],"id":18,"left_children":[1,3,5,7,9,11,13,15,17,19,21,23,25,27,29,31,33,35,-1,37,39,41,-1,-1,-1,43,45,-1,-1,-1,-1,-1,-1,-1,-1,-1,-1,-1,-1,-1,-1,-1,-1,-1,-1,-1,-1],"loss_changes":[1.5639435E2,4.6403877E1,5.6899933E1,2.0895004E1,6.492381E1,1.5671417E1,1.0225102E1,1.8797926E1,1.1975822E1,1.0556446E1,1.0666885E1,7.2681684E0,1.12829895E1,8.867388E-1,7.104656E0,5.409999E0,6.449811E0,3.959961E0,0E0,5.8086205E0,2.0133839E0,6.2247906E0,0E0,0E0,0E0,1.179656E1,1.1266144E1,0E0,0E0,0E0,0E0,0E0,0E0,0E0,0E0,0E0,0E0,0E0,0E0,0E0,0E0,0E0,0E0,0E0,0E0,0E0,0E0],"parents":[2147483647,0,0,1,1,2,2,3,3,4,4,5,5,6,6,7,7,8,8,9,9,10,10,11,11,12,12,13,13,14,14,15,15,16,16,17,17,19,19,20,20,21,21,25,25,26,26],"right_children":[2,4,6,8,10,12,14,16,18,20,22,24,26,28,30,32,34,36,-1,38,40,42,-1,-1,-1,44,46,-1,-1,-1,-1,-1,-1,-1,-1,-1,-1,-1,-1,-1,-1,-1,-1,-1,-1,-1,-1],"split_conditions":[3.3439848E-1,-2.313023E-1,3.5593137E-1,-1.6307817E-1,-1.6404496E-1,-1.2387395E0,-1.159698E-1,-2.330933E-1,2.3287935E0,6.578067E-1,1.7119563E0,-1.9490312E-1,-3.8319582E-1,1.6597279E0,-1.0058267E-1,-6.2526286E-1,2.455576E-2,9.682507E-2,3.4612373E-2,-1.1300809E0,1.0721215E0,-1.4326109E-1,4.4770513E-2,3.3232536E-2,-3.0074814E-2,-2.256297E-1,2.1310978E0,-3.30673E-2,-2.7263723E-3,4.7133494E-2,-2.5306702E-2,1.5348517E-3,-2.884525E-2,4.983827E-2,-8.1451965E-4,-3.2356318E-2,1.0118019E-2,-1.4166583E-2,4.875581E-2,-2.7157921E-2,1.577564E-2,-2.1144254E-3,-3.3107948E-2,-2.1410653E-2,4.767656E-2,5.078059E-2,5.9166118E-3],"split_indices":[537,280,44,465,426,528,316,323,96,207,41,464,127,100,293,203,123,278,0,537,11,44,0,0,0,282,207,0,0,0,0,0,0,0,0,0,0,0,0,0,0,0,0,0,0,0,0],"split_type":[0,0,0,0,0,0,0,0,0,0,0,0,0,0,0,0,0,0,0,0,0,0,0,0,0,0,0,0,0,0,0,0,0,0,0,0,0,0,0,0,0,0,0,0,0,0,0],"sum_hessian":[8.618567E2,5.744848E2,2.8737192E2,4.0230084E2,1.7218394E2,2.3808775E2,4.928415E1,8.615105E1,3.1614978E2,7.935215E1,9.28318E1,1.6292545E1,2.2179521E2,3.774914E1,1.15350065E1,6.045864E1,2.5692402E1,3.104228E2,5.726988E0,7.083071E1,8.521439E0,8.849803E1,4.3337717E0,5.7799087E0,1.0512637E1,2.2197754E1,1.9959746E2,3.4474644E1,3.274499E0,7.363637E0,4.1713696E0,2.2652172E1,3.7806473E1,1.636698E1,9.325423E0,3.0565604E2,4.7667704E0,3.1180184E0,6.771269E1,5.421385E0,3.1000538E0,2.2012321E1,6.648571E1,1.2804221E1,9.393534E0,1.8372583E2,1.5871625E1],"tree_param":{"num_deleted":"0","num_feature":"556","num_nodes":"47","size_leaf_vector":"1"}},{"base_weights":[-9.105161E-3,2.6385903E-1,-4.9688795E-1,-1.6202605E-1,7.585833E-1,-5.817094E-1,4.1589952E-1,4.9578902E-1,-3.5672104E-1,8.950297E-1,-2.9574835E-1,-9.20004E-2,-6.235018E-1,5.008286E-2,-2.7553892E-1,-4.0677768E-1,9.46221E-1,-4.752013E-1,2.8507495E-1,9.990282E-1,2.2451256E-1,-5.151149E-1,3.6537338E-2,5.618909E-1,-2.7255923E-2,-6.3679457E-1,1.3704083E-2,2.2521494E-2,-2.9366335E-2,2.7232349E-2,-2.9919345E-2,-5.8842734E-3,5.246619E-2,8.315928E-4,-2.8479619E-2,4.5557648E-2,-2.1268452E-2,-0E0,5.257226E-2,-2.3504326E-2,4.225673E-2,-3.24738E-2,1.699956E-3,-1.2262003E-2,4.9589705E-2,7.840025E-3,-3.2528896E-2],"categories":[],"categories_nodes":[],"categories_segments":[],"categories_sizes":[],"default_left":[0,0,0,0,0,0,0,0,0,0,0,0,0,0,0,0,0,0,0,0,0,0,0,0,0,0,0,0,0,0,0,0,0,0,0,0,0,0,0,0,0,0,0,0,0,0,0],"id":19,"left_children":[1,3,5,7,9,11,13,15,17,19,21,23,25,-1,27,29,31,33,35,37,39,41,-1,43,-1,45,-1,-1,-1,-1,-1,-1,-1,-1,-1,-1,-1,-1,-1,-1,-1,-1,-1,-1,-1,-1,-1],"loss_changes":[1.12795746E2,1.1464606E2,2.3918335E1,3.7765896E1,3.6646133E1,5.5504303E0,1.1269775E1,2.8034748E1,1.7483988E1,1.5104843E1,7.2688227E0,7.5325966E0,3.358757E0,0E0,3.4229035E0,4.762908E0,5.2683105E0,8.998173E0,1.6723766E1,1.0031509E1,1.4442276E1,1.981174E0,0E0,4.055809E0,0E0,2.9735413E0,0E0,0E0,0E0,0E0,0E0,0E0,0E0,0E0,0E0,0E0,0E0,0E0,0E0,0E0,0E0,0E0,0E0,0E0,0E0,0E0,0E0],"parents":[2147483647,0,0,1,1,2,2,3,3,4,4,5,5,6,6,7,7,8,8,9,9,10,10,11,11,12,12,14,14,15,15,16,16,17,17,18,18,19,19,20,20,21,21,23,23,25,25],"right_children":[2,4,6,8,10,12,14,16,18,20,22,24,26,-1,28,30,32,34,36,38,40,42,-1,44,-1,46,-1,-1,-1,-1,-1,-1,-1,-1,-1,-1,-1,-1,-1,-1,-1,-1,-1,-1,-1,-1,-1],"split_conditions":[-2.5315756E-1,-1.9456059E-1,9.558819E-2,-2.7740237E-1,-2.3537883E-1,-1.0982745E0,-7.394348E-2,-1.6825399E-1,-1.3569947E-1,2.364028E-1,1.1706413E0,-5.010004E-1,2.0857925E0,5.008286E-2,-3.1752303E-1,-7.613038E-1,-6.316651E-1,-1.0226587E0,-7.33326E-2,-1.9236177E-1,-9.254625E-2,-7.06715E-2,3.6537338E-2,-1.7705065E-1,-2.7255923E-2,-2.2861152E0,1.3704083E-2,2.2521494E-2,-2.9366335E-2,2.7232349E-2,-2.9919345E-2,-5.8842734E-3,5.246619E-2,8.315928E-4,-2.8479619E-2,4.5557648E-2,-2.1268452E-2,-0E0,5.257226E-2,-2.3504326E-2,4.225673E-2,-3.24738E-2,1.699956E-3,-1.2262003E-2,4.9589705E-2,7.840025E-3,-3.2528896E-2],"split_indices":[280,458,496,282,284,535,265,457,492,127,261,48,259,0,44,91,123,128,308,464,494,426,0,316,0,112,0,0,0,0,0,0,0,0,0,0,0,0,0,0,0,0,0,0,0,0,0],"split_type":[0,0,0,0,0,0,0,0,0,0,0,0,0,0,0,0,0,0,0,0,0,0,0,0,0,0,0,0,0,0,0,0,0,0,0,0,0,0,0,0,0,0,0,0,0,0,0],"sum_hessian":[8.439985E2,5.4147284E2,3.0252567E2,2.9141437E2,2.5005846E2,2.7740155E2,2.5124107E1,6.5905716E1,2.2550867E2,2.2168993E2,2.8368534E1,2.2378057E1,2.5502348E2,1.33154545E1,1.1808652E1,2.1915411E1,4.3990303E1,1.9082597E2,3.4682693E1,1.9115706E2,3.0532866E1,2.4069471E1,4.2990623E0,8.922005E0,1.3456053E1,2.5184106E2,3.1824274E0,3.251081E0,8.557571E0,3.1229503E0,1.8792461E1,3.78202E0,4.0208282E1,3.0754276E1,1.6007169E2,1.8285555E1,1.6397139E1,9.656139E0,1.8150092E2,1.4503396E1,1.6029469E1,1.9263823E1,4.8056498E0,3.2437203E0,5.678284E0,3.9097903E0,2.4793127E2],"tree_param":{"num_deleted":"0","num_feature":"556","num_nodes":"47","size_leaf_vector":"1"}},{"base_weights":[1.3687927E-2,4.0673783E-1,-3.6729878E-1,-5.4308265E-2,8.4108627E-1,-5.40945E-1,3.026276E-1,3.7792125E-1,-4.3026006E-1,8.9221233E-1,-2.410113E-2,3.766494E-2,-5.605019E-1,-4.3039072E-1,7.269396E-1,-3.6008817E-1,6.569138E-1,-5.760004E-1,6.19096E-1,-3.632165E-1,9.375492E-1,-5.9553635E-1,-4.249732E-2,2.7748212E-1,-3.1230552E-2,9.805062E-1,-2.6552105E-1,3.980097E-2,-2.8847856E-2,4.058567E-2,-3.052021E-2,-3.0938609E-2,2.2207392E-2,4.7234416E-2,-7.856355E-3,-1.7258875E-3,-2.5880978E-2,-6.988718E-5,4.8781488E-2,3.7123587E-3,-3.084377E-2,3.859457E-2,-2.0455359E-2,3.8872942E-2,-1.4487535E-2,-1.3527684E-2,5.399269E-2,-2.9637778E-2,2.3847802E-2],"categories":[],"categories_nodes":[],"categories_segments":[],"categories_sizes":[],"default_left":[0,0,0,0,0,0,0,0,0,0,0,0,0,0,0,0,0,0,0,0,0,0,0,0,0,0,0,0,0,0,0,0,0,0,0,0,0,0,0,0,0,0,0,0,0,0,0,0,0],"id":20,"left_children":[1,3,5,7,9,11,13,15,17,19,-1,-1,21,23,25,27,29,31,33,35,37,39,41,43,-1,45,47,-1,-1,-1,-1,-1,-1,-1,-1,-1,-1,-1,-1,-1,-1,-1,-1,-1,-1,-1,-1,-1,-1],"loss_changes":[1.2976955E2,8.558288E1,5.1447117E1,3.4089973E1,1.5559998E1,9.473892E0,2.8927677E1,2.0470211E1,1.769024E1,1.2651718E1,0E0,0E0,6.173065E0,5.019524E0,1.5192814E1,7.5949078E0,1.4774448E1,4.7660484E0,3.9211226E0,3.444934E-1,7.443527E0,4.747444E0,7.5132074E0,2.7482002E0,0E0,6.36372E0,3.597136E0,0E0,0E0,0E0,0E0,0E0,0E0,0E0,0E0,0E0,0E0,0E0,0E0,0E0,0E0,0E0,0E0,0E0,0E0,0E0,0E0,0E0,0E0],"parents":[2147483647,0,0,1,1,2,2,3,3,4,4,5,5,6,6,7,7,8,8,9,9,12,12,13,13,14,14,15,15,16,16,17,17,18,18,19,19,20,20,21,21,22,22,23,23,25,25,26,26],"right_children":[2,4,6,8,10,12,14,16,18,20,-1,-1,22,24,26,28,30,32,34,36,38,40,42,44,-1,46,48,-1,-1,-1,-1,-1,-1,-1,-1,-1,-1,-1,-1,-1,-1,-1,-1,-1,-1,-1,-1,-1,-1],"split_conditions":[-1.852129E-1,-1.9981122E-1,5.892203E-2,-2.3766784E-1,6.3097454E-4,-2.582789E0,-4.7324836E-2,-2.2624673E-1,-2.3567225E-1,-1.1288084E0,-2.410113E-2,3.766494E-2,2.9027805E-1,-1.679239E-1,1.295049E-1,-2.519686E-1,-2.9789928E-1,-2.0640439E-1,-1.815579E-1,-2.3583594E-1,-6.078909E-1,-2.4907348E-1,-6.0907304E-1,5.143855E-2,-3.1230552E-2,-1.6265578E0,5.088414E-1,3.980097E-2,-2.8847856E-2,4.058567E-2,-3.052021E-2,-3.0938609E-2,2.2207392E-2,4.7234416E-2,-7.856355E-3,-1.7258875E-3,-2.5880978E-2,-6.988718E-5,4.8781488E-2,3.7123587E-3,-3.084377E-2,3.859457E-2,-2.0455359E-2,3.8872942E-2,-1.4487535E-2,-1.3527684E-2,5.399269E-2,-2.9637778E-2,2.3847802E-2],"split_indices":[454,426,418,452,317,22,309,431,294,536,0,0,422,451,323,322,276,290,453,82,124,322,203,108,0,3,375,0,0,0,0,0,0,0,0,0,0,0,0,0,0,0,0,0,0,0,0,0,0],"split_type":[0,0,0,0,0,0,0,0,0,0,0,0,0,0,0,0,0,0,0,0,0,0,0,0,0,0,0,0,0,0,0,0,0,0,0,0,0,0,0,0,0,0,0,0,0,0,0,0,0],"sum_hessian":[8.635704E2,4.251352E2,4.3843518E2,2.0675453E2,2.1838068E2,3.4853287E2,8.990231E1,9.605119E1,1.1070334E2,2.107993E2,7.5813775E0,4.27433E0,3.442585E2,3.28666E1,5.7035713E1,2.6131638E1,6.9919556E1,9.788101E1,1.282232E1,6.903749E0,2.0389555E2,3.22059E2,2.2199547E1,6.826865E0,2.6039734E1,4.552359E1,1.1512122E1,3.4220648E0,2.2709572E1,6.285959E1,7.0599704E0,9.46028E1,3.2782164E0,8.894669E0,3.927651E0,3.0000744E0,3.9036746E0,7.9009833E0,1.9599457E2,9.684348E0,3.1237463E2,6.2918367E0,1.590771E1,3.4267712E0,3.400094E0,3.0848832E0,4.2438705E1,8.293889E0,3.218233E0],"tree_param":{"num_deleted":"0","num_feature":"556","num_nodes":"49","size_leaf_vector":"1"}},{"base_weights":[-4.4854726E-3,-2.4223964E-1,6.4354056E-1,3.1655148E-1,-4.3036383E-1,7.700575E-1,-4.5244595E-1,-8.038603E-2,8.070167E-1,-5.049304E-1,2.8070596E-1,1.4090055E-1,9.066207E-1,1.954335E-2,-3.1598844E-2,3.6986494E-1,-5.1825535E-1,9.574197E-1,-2.3482254E-1,-4.2214036E-2,-5.6728274E-1,7.787055E-1,-1.9861093E-1,-3.2242637E-2,8.3245116E-1,9.429365E-1,-2.4080742E-2,3.520742E-2,-2.067492E-2,-3.0666003E-2,1.6357142E-2,5.0122168E-2,3.0641952E-3,-2.71071E-2,1.37880165E-2,-2.1367732E-2,2.5517508E-2,-3.143516E-2,-1.1017013E-2,4.902243E-2,-1.2879099E-2,3.0425448E-2,-2.6637027E-2,4.8140183E-2,2.3039745E-3,7.493041E-3,4.9039748E-2],"categories":[],"categories_nodes":[],"categories_segments":[],"categories_sizes":[],"default_left":[0,0,0,0,0,0,0,0,0,0,0,0,0,0,0,0,0,0,0,0,0,0,0,0,0,0,0,0,0,0,0,0,0,0,0,0,0,0,0,0,0,0,0,0,0,0,0],"id":21,"left_children":[1,3,5,7,9,11,13,15,17,19,21,23,25,-1,-1,27,29,31,33,35,37,39,41,-1,43,45,-1,-1,-1,-1,-1,-1,-1,-1,-1,-1,-1,-1,-1,-1,-1,-1,-1,-1,-1,-1,-1],"loss_changes":[1.305026E2,6.538719E1,3.2073776E1,3.07117E1,2.486805E1,1.7267769E1,4.086951E0,1.7643333E1,1.1444122E1,1.2053902E1,1.1015062E1,2.167108E1,9.17485E0,0E0,0E0,1.202153E1,3.9725838E0,2.299633E0,1.8206943E0,1.134754E1,7.6094055E0,5.1431875E0,6.947814E0,0E0,1.9983187E0,4.586487E0,0E0,0E0,0E0,0E0,0E0,0E0,0E0,0E0,0E0,0E0,0E0,0E0,0E0,0E0,0E0,0E0,0E0,0E0,0E0,0E0,0E0],"parents":[2147483647,0,0,1,1,2,2,3,3,4,4,5,5,6,6,7,7,8,8,9,9,10,10,11,11,12,12,15,15,16,16,17,17,18,18,19,19,20,20,21,21,22,22,24,24,25,25],"right_children":[2,4,6,8,10,12,14,16,18,20,22,24,26,-1,-1,28,30,32,34,36,38,40,42,-1,44,46,-1,-1,-1,-1,-1,-1,-1,-1,-1,-1,-1,-1,-1,-1,-1,-1,-1,-1,-1,-1,-1],"split_conditions":[5.2615845E-1,-7.839377E-1,5.1744604E-1,-2.700224E-1,1.1740622E-1,-1.2712985E-1,-8.3731025E-1,-6.8884885E-1,-2.9606834E-2,-1.09876245E-1,-6.4176625E-1,4.0713286E-1,2.5343728E0,1.954335E-2,-3.1598844E-2,-2.0075023E-1,3.4988642E-1,1.1363446E0,6.2881523E-1,-7.0538074E-2,-2.0137396E-1,3.2378706E-1,-1.5127438E-1,-3.2242637E-2,-1.5670466E-1,-1.0154184E-1,-2.4080742E-2,3.520742E-2,-2.067492E-2,-3.0666003E-2,1.6357142E-2,5.0122168E-2,3.0641952E-3,-2.71071E-2,1.37880165E-2,-2.1367732E-2,2.5517508E-2,-3.143516E-2,-1.1017013E-2,4.902243E-2,-1.2879099E-2,3.0425448E-2,-2.6637027E-2,4.8140183E-2,2.3039745E-3,7.493041E-3,4.9039748E-2],"split_indices":[47,202,7,408,278,264,75,124,426,485,3,4,83,0,0,426,121,536,104,105,280,420,429,0,337,376,0,0,0,0,0,0,0,0,0,0,0,0,0,0,0,0,0,0,0,0,0],"split_type":[0,0,0,0,0,0,0,0,0,0,0,0,0,0,0,0,0,0,0,0,0,0,0,0,0,0,0,0,0,0,0,0,0,0,0,0,0,0,0,0,0,0,0,0,0,0,0],"sum_hessian":[8.4427234E2,6.184594E2,2.2581288E2,1.5537846E2,4.63081E2,2.029252E2,2.288767E1,8.6457756E1,6.892071E1,4.1964975E2,4.343122E1,3.686504E1,1.6606017E2,3.6095831E0,1.9278088E1,4.2628464E1,4.382929E1,6.0416348E1,8.504359E0,5.0322914E1,3.6932684E2,2.0943304E1,2.2487917E1,1.7236864E1,1.9628174E1,1.623659E2,3.6942613E0,3.0074257E1,1.2554207E1,3.9875385E1,3.9539046E0,5.7250443E1,3.1659043E0,5.373308E0,3.1310506E0,2.9960875E1,2.036204E1,3.1249774E2,5.682909E1,1.7678919E1,3.2643845E0,6.1356516E0,1.6352266E1,1.6439396E1,3.1887774E0,7.8568215E0,1.5450908E2],"tree_param":{"num_deleted":"0","num_feature":"556","num_nodes":"47","size_leaf_vector":"1"}},{"base_weights":[-2.6053758E-3,-3.6543575E-1,3.4438074E-1,-5.693953E-1,-1.0826974E-1,5.849209E-1,-4.3316334E-1,3.1833753E-2,-5.918174E-1,-2.7721465E-1,6.913784E-1,8.15376E-1,-9.597238E-3,-6.07902E-1,3.9397404E-1,1.0850042E-1,-6.2841064E-1,2.3571465E-3,-6.389547E-1,-1.0032911E-1,5.1631846E-2,-3.7621E-1,8.735739E-1,-4.9352616E-1,6.36228E-1,-6.378543E-1,5.430973E-3,4.681726E-2,-2.6901677E-2,3.7134837E-2,-2.141313E-2,-0E0,-3.2238156E-2,-1.2836325E-2,2.4540912E-2,-2.3458798E-3,-3.331097E-2,3.035274E-2,-2.6775798E-2,6.8998025E-3,-2.9140709E-2,4.6276215E-2,-1.4052768E-2,-3.0099979E-2,2.4123576E-2,4.1606333E-2,-2.6241288E-2,-1.8363184E-3,-3.293579E-2],"categories":[],"categories_nodes":[],"categories_segments":[],"categories_sizes":[],"default_left":[0,0,0,0,0,0,0,0,0,0,0,0,0,0,0,0,0,0,0,0,0,0,0,0,0,0,0,0,0,0,0,0,0,0,0,0,0,0,0,0,0,0,0,0,0,0,0,0,0],"id":22,"left_children":[1,3,5,7,9,11,13,-1,15,17,19,21,23,25,27,29,31,33,35,37,-1,39,41,43,45,47,-1,-1,-1,-1,-1,-1,-1,-1,-1,-1,-1,-1,-1,-1,-1,-1,-1,-1,-1,-1,-1,-1,-1],"loss_changes":[1.06056786E2,2.1446087E1,8.090489E1,6.7578125E0,2.5140154E1,4.5236298E1,1.5190613E1,0E0,5.941765E0,1.5569716E1,9.020416E0,1.7019028E1,2.9648985E1,1.9872074E0,1.0239099E1,4.71536E0,2.2046509E0,1.1325043E1,9.6315575E-1,3.884669E0,0E0,1.4433812E0,1.407431E1,6.1993666E0,9.914951E0,9.251976E-1,0E0,0E0,0E0,0E0,0E0,0E0,0E0,0E0,0E0,0E0,0E0,0E0,0E0,0E0,0E0,0E0,0E0,0E0,0E0,0E0,0E0,0E0,0E0],"parents":[2147483647,0,0,1,1,2,2,3,3,4,4,5,5,6,6,8,8,9,9,10,10,11,11,12,12,13,13,14,14,15,15,16,16,17,17,18,18,19,19,21,21,22,22,23,23,24,24,25,25],"right_children":[2,4,6,8,10,12,14,-1,16,18,20,22,24,26,28,30,32,34,36,38,-1,40,42,44,46,48,-1,-1,-1,-1,-1,-1,-1,-1,-1,-1,-1,-1,-1,-1,-1,-1,-1,-1,-1,-1,-1,-1,-1],"split_conditions":[-1.8590951E-2,1.1883088E-1,-2.4448928E-1,-2.0312343E0,8.038122E-1,1.6452186E-2,8.236169E-4,3.1833753E-2,-1.3940254E0,-1.3142845E-1,-2.3459096E-1,-1.2390894E0,-3.5949245E-1,1.7308666E0,-1.2664886E-1,2.4784636E0,-1.298677E0,-2.3453625E-1,-1.2712774E-1,4.3447062E-1,5.1631846E-2,-1.4780042E-1,1.1350945E0,1.4113481E0,-1.7392743E-1,-8.4211014E-2,5.430973E-3,4.681726E-2,-2.6901677E-2,3.7134837E-2,-2.141313E-2,-0E0,-3.2238156E-2,-1.2836325E-2,2.4540912E-2,-2.3458798E-3,-3.331097E-2,3.035274E-2,-2.6775798E-2,6.8998025E-3,-2.9140709E-2,4.6276215E-2,-1.4052768E-2,-3.0099979E-2,2.4123576E-2,4.1606333E-2,-2.6241288E-2,-1.8363184E-3,-3.293579E-2],"split_indices":[42,8,280,178,204,127,495,0,41,127,46,202,520,136,264,522,537,450,264,44,0,371,79,203,283,378,0,0,0,0,0,0,0,0,0,0,0,0,0,0,0,0,0,0,0,0,0,0,0],"split_type":[0,0,0,0,0,0,0,0,0,0,0,0,0,0,0,0,0,0,0,0,0,0,0,0,0,0,0,0,0,0,0,0,0,0,0,0,0,0,0,0,0,0,0,0,0,0,0,0,0],"sum_hessian":[8.3939233E2,4.1042975E2,4.289626E2,2.2766084E2,1.827689E2,3.2799472E2,1.0096786E2,3.3237896E0,2.2433705E2,1.5180211E2,3.0966797E1,2.3608951E2,9.190522E1,8.378596E1,1.71819E1,1.08579645E1,2.134791E2,8.631055E1,6.549156E1,9.558166E0,2.1408632E1,1.0532145E1,2.2555736E2,5.282845E1,3.907677E1,8.071609E1,3.0698712E0,1.09247055E1,6.257194E0,4.7988462E0,6.0591183E0,5.4631147E0,2.0801598E2,5.6728302E1,2.9582243E1,3.224401E0,6.226716E1,3.3273966E0,6.230769E0,3.0228443E0,7.5093007E0,2.1621349E2,9.343879E0,4.815383E1,4.674616E0,3.3872684E1,5.204085E0,3.0068738E0,7.770921E1],"tree_param":{"num_deleted":"0","num_feature":"556","num_nodes":"49","size_leaf_vector":"1"}},{"base_weights":[7.672502E-3,3.747875E-1,-3.9848804E-1,-1.6070748E-2,8.510525E-1,-5.607681E-1,3.6844796E-1,-5.310306E-1,2.27359E-1,9.320322E-1,4.5303687E-2,-6.3161075E-1,-2.6983386E-1,-5.632195E-1,7.75617E-1,3.8822362E-1,-6.170482E-1,4.734387E-1,-2.9287842E-1,9.647025E-1,-1.7122108E-2,-3.1084558E-2,6.681354E-1,-6.509755E-1,1.8250272E-2,5.29532E-1,-4.665763E-1,-3.1629052E-2,-2.4416286E-3,-2.5475208E-2,9.183701E-1,5.1447884E-3,2.6188368E-2,-3.323109E-2,1.0952628E-2,3.777884E-2,-6.594654E-4,-2.6980171E-2,1.6541665E-2,1.7798025E-2,5.0221104E-2,-2.2555557E-3,4.730792E-2,-3.3054575E-2,5.949944E-4,-2.394705E-2,4.77937E-2,-2.7845342E-2,2.4618862E-2,2.419531E-3,5.0407328E-2],"categories":[],"categories_nodes":[],"categories_segments":[],"categories_sizes":[],"default_left":[0,0,0,0,0,0,0,0,0,0,0,0,0,0,0,0,0,0,0,0,0,0,0,0,0,0,0,0,0,0,0,0,0,0,0,0,0,0,0,0,0,0,0,0,0,0,0,0,0,0,0],"id":23,"left_children":[1,3,5,7,9,11,13,15,17,19,21,23,25,27,29,31,33,35,37,39,-1,-1,41,43,-1,45,47,-1,-1,-1,49,-1,-1,-1,-1,-1,-1,-1,-1,-1,-1,-1,-1,-1,-1,-1,-1,-1,-1,-1,-1],"loss_changes":[1.2845868E2,8.436211E1,5.122017E1,3.154594E1,1.3160706E1,6.6245117E0,2.8068573E1,6.772436E0,2.2072327E1,8.274551E0,9.075313E0,5.6068497E0,1.1234636E1,6.9737387E-1,1.0090553E1,1.5569127E-1,3.229416E0,1.6091484E1,8.84384E0,3.7081757E0,0E0,0E0,2.3980923E0,1.8607712E0,0E0,6.8629866E0,5.3002768E0,0E0,0E0,0E0,3.4502754E0,0E0,0E0,0E0,0E0,0E0,0E0,0E0,0E0,0E0,0E0,0E0,0E0,0E0,0E0,0E0,0E0,0E0,0E0,0E0,0E0],"parents":[2147483647,0,0,1,1,2,2,3,3,4,4,5,5,6,6,7,7,8,8,9,9,10,10,11,11,12,12,13,13,14,14,15,15,16,16,17,17,18,18,19,19,22,22,23,23,25,25,26,26,30,30],"right_children":[2,4,6,8,10,12,14,16,18,20,22,24,26,28,30,32,34,36,38,40,-1,-1,42,44,-1,46,48,-1,-1,-1,50,-1,-1,-1,-1,-1,-1,-1,-1,-1,-1,-1,-1,-1,-1,-1,-1,-1,-1,-1,-1],"split_conditions":[-1.7624418E-1,-1.9636504E-1,1.3722025E-1,-7.8346485E-1,-2.1867175E-1,-5.1562592E-2,-6.7160267E-1,-1.355302E0,3.3643386E-1,1.4940674E0,-1.4346547E-1,3.4251232E0,-2.1753211E-1,7.949512E-1,-1.4490347E-1,-1.1516633E0,1.0096507E0,-2.3809142E-1,-2.2049418E-1,-1.3222562E-1,-1.7122108E-2,-3.1084558E-2,-6.538604E-2,2.1310978E0,1.8250272E-2,-1.4097178E-1,7.972768E-1,-3.1629052E-2,-2.4416286E-3,-2.5475208E-2,-6.9275E-2,5.1447884E-3,2.6188368E-2,-3.323109E-2,1.0952628E-2,3.777884E-2,-6.594654E-4,-2.6980171E-2,1.6541665E-2,1.7798025E-2,5.0221104E-2,-2.2555557E-3,4.730792E-2,-3.3054575E-2,5.949944E-4,-2.394705E-2,4.77937E-2,-2.7845342E-2,2.4618862E-2,2.419531E-3,5.0407328E-2],"split_indices":[453,426,290,124,318,294,6,107,123,123,471,59,450,104,364,126,125,450,431,307,0,0,312,207,0,472,6,0,0,0,480,0,0,0,0,0,0,0,0,0,0,0,0,0,0,0,0,0,0,0,0],"split_type":[0,0,0,0,0,0,0,0,0,0,0,0,0,0,0,0,0,0,0,0,0,0,0,0,0,0,0,0,0,0,0,0,0,0,0,0,0,0,0,0,0,0,0,0,0,0,0,0,0,0,0],"sum_hessian":[8.5852997E2,4.5113034E2,4.0739966E2,2.484628E2,2.0266753E2,3.36691E2,7.070864E1,7.9315216E1,1.6914758E2,1.838327E2,1.883483E1,2.6907175E2,6.761926E1,2.1254496E1,4.9454147E1,6.2363176E0,7.3078896E1,1.15053024E2,5.4094563E1,1.7967003E2,4.1626687E0,9.018763E0,9.816067E0,2.645519E2,4.519822E0,1.275403E1,5.4865234E1,1.8253998E1,3.0004976E0,4.4889164E0,4.4965233E1,3.0958452E0,3.1404727E0,6.954885E1,3.5300472E0,7.243374E1,4.2619286E1,3.9021305E1,1.5073261E1,1.2074635E1,1.675954E2,3.0046926E0,6.811374E0,2.607279E2,3.8240042E0,3.6650581E0,9.088972E0,5.0812054E1,4.0531774E0,4.5262194E0,4.043901E1],"tree_param":{"num_deleted":"0","num_feature":"556","num_nodes":"51","size_leaf_vector":"1"}},{"base_weights":[9.234752E-3,-3.631389E-1,4.5420346E-1,1.119896E-1,-4.9076423E-1,6.384788E-1,-3.5180828E-1,3.655673E-1,-5.4233056E-1,-6.091143E-1,-2.040786E-1,3.7240267E-2,7.8399557E-1,-5.717491E-1,3.7940407E-1,-2.1254703E-1,8.6156684E-1,-3.168736E-2,5.7226806E-3,7.7241906E-3,-6.2918526E-1,2.3882115E-1,-4.94921E-1,-3.3524042E-1,7.602252E-1,8.497585E-1,-6.1925463E-2,-6.349775E-1,1.621358E-2,4.368581E-2,-2.1115592E-2,1.8514492E-2,-2.7660219E-2,4.813512E-2,-5.1017845E-4,-3.1977396E-2,5.939482E-3,3.4805473E-2,-1.4240319E-2,1.8949851E-2,-2.9894425E-2,1.9784112E-2,-2.9366879E-2,4.826699E-2,-1.262338E-2,4.4193562E-2,-2.5449915E-2,4.056343E-2,-2.5214473E-2,-1.0849453E-2,-3.2605056E-2],"categories":[],"categories_nodes":[],"categories_segments":[],"categories_sizes":[],"default_left":[0,0,0,0,0,0,0,0,0,0,0,0,0,0,0,0,0,0,0,0,0,0,0,0,0,0,0,0,0,0,0,0,0,0,0,0,0,0,0,0,0,0,0,0,0,0,0,0,0,0,0],"id":24,"left_children":[1,3,5,7,9,11,13,15,17,19,21,23,25,27,29,31,33,-1,-1,-1,35,37,39,41,43,45,47,49,-1,-1,-1,-1,-1,-1,-1,-1,-1,-1,-1,-1,-1,-1,-1,-1,-1,-1,-1,-1,-1,-1,-1],"loss_changes":[1.3817659E2,2.7641907E1,5.6807938E1,1.6399796E1,1.1885979E1,2.6990082E1,1.1856311E1,2.0705816E1,1.8196325E0,4.063713E0,1.4007912E1,1.7149166E1,1.4027893E1,3.4973297E0,7.4737167E0,7.0579166E0,3.5147877E0,0E0,0E0,0E0,2.0765991E0,1.0720006E1,6.239094E0,8.095187E0,4.937454E0,1.1445084E1,8.027671E0,7.782173E-2,0E0,0E0,0E0,0E0,0E0,0E0,0E0,0E0,0E0,0E0,0E0,0E0,0E0,0E0,0E0,0E0,0E0,0E0,0E0,0E0,0E0,0E0,0E0],"parents":[2147483647,0,0,1,1,2,2,3,3,4,4,5,5,6,6,7,7,8,8,9,9,10,10,11,11,12,12,13,13,14,14,15,15,16,16,20,20,21,21,22,22,23,23,24,24,25,25,26,26,27,27],"right_children":[2,4,6,8,10,12,14,16,18,20,22,24,26,28,30,32,34,-1,-1,-1,36,38,40,42,44,46,48,50,-1,-1,-1,-1,-1,-1,-1,-1,-1,-1,-1,-1,-1,-1,-1,-1,-1,-1,-1,-1,-1,-1,-1],"split_conditions":[-1.71775E-2,-8.337009E-1,3.8821554E-1,-1.8698727E-1,1.886759E-1,-3.0291593E-1,-1.159698E-1,-2.931476E-1,2.123291E-1,-1.5119568E-1,-1.2810327E-1,-5.5382494E-2,2.1310978E0,2.2538605E0,-1.1523881E-1,-8.695707E-1,-1.0718273E-1,-3.168736E-2,5.7226806E-3,7.7241906E-3,1.6349003E0,-1.1008389E-1,-1.7216947E0,-8.9591837E-1,-7.389449E-2,8.86407E-1,-4.7605073E-1,-6.249804E-1,1.621358E-2,4.368581E-2,-2.1115592E-2,1.8514492E-2,-2.7660219E-2,4.813512E-2,-5.1017845E-4,-3.1977396E-2,5.939482E-3,3.4805473E-2,-1.4240319E-2,1.8949851E-2,-2.9894425E-2,1.9784112E-2,-2.9366879E-2,4.826699E-2,-1.262338E-2,4.4193562E-2,-2.5449915E-2,4.056343E-2,-2.5214473E-2,-1.0849453E-2,-3.2605056E-2],"split_indices":[537,202,44,419,48,127,316,407,277,484,7,281,207,197,295,124,297,0,0,0,530,44,165,202,489,7,156,251,0,0,0,0,0,0,0,0,0,0,0,0,0,0,0,0,0,0,0,0,0,0,0],"split_type":[0,0,0,0,0,0,0,0,0,0,0,0,0,0,0,0,0,0,0,0,0,0,0,0,0,0,0,0,0,0,0,0,0,0,0,0,0,0,0,0,0,0,0,0,0,0,0,0,0,0,0],"sum_hessian":[8.3087506E2,4.5236383E2,3.785112E2,9.565518E1,3.5670865E2,3.0843155E2,7.0079666E1,6.952571E1,2.612947E1,2.510386E2,1.05670044E2,6.0603638E1,2.478279E2,5.4231342E1,1.5848326E1,3.2408016E1,3.7117695E1,2.3116758E1,3.0127125E0,6.0446033E0,2.44994E2,4.1855797E1,6.3814247E1,4.043681E1,2.0166828E1,2.3005458E2,1.7773321E1,5.116916E1,3.0621846E0,9.797515E0,6.0508103E0,1.1798211E1,2.0609806E1,3.3221825E1,3.89587E0,2.4199252E2,3.0014758E0,2.2181438E1,1.9674358E1,6.2000575E0,5.7614193E1,1.0049265E1,3.0387543E1,1.6910583E1,3.2562463E0,2.2500352E2,5.051056E0,5.4797435E0,1.2293578E1,3.0506365E0,4.8118523E1],"tree_param":{"num_deleted":"0","num_feature":"556","num_nodes":"51","size_leaf_vector":"1"}},{"base_weights":[-2.1321837E-2,-3.6867258E-1,3.193214E-1,-5.74904E-1,-9.630797E-2,5.9254557E-1,-3.2961583E-1,1.5597415E-1,-6.198218E-1,2.772073E-1,-4.0657577E-1,1.9267361E-1,8.618611E-1,-5.143777E-1,2.7358118E-1,6.730974E-1,-2.5935069E-2,-0E0,-6.3513845E-1,5.635719E-1,-4.8346898E-1,3.7028545E-1,-4.9100444E-1,5.6868833E-1,-3.9889804E-1,-1.9026597E-1,9.0921634E-1,2.9488346E-2,-6.205747E-1,-2.481555E-2,6.539422E-1,4.2792056E-2,1.0725968E-2,-3.2369483E-2,4.1500065E-3,3.965823E-2,-5.039769E-3,1.1185178E-2,-3.1319957E-2,4.0356E-2,-2.1890897E-2,-2.8122563E-2,2.2135573E-2,3.600539E-2,-2.5276318E-2,-3.2148138E-2,2.8979912E-2,1.1820528E-2,-2.54547E-2,4.7138643E-2,-1.662096E-2,3.9091755E-2,-2.5028888E-2,-3.2539267E-2,4.514325E-3,-1.6544728E-2,4.490406E-2],"categories":[],"categories_nodes":[],"categories_segments":[],"categories_sizes":[],"default_left":[0,0,0,0,0,0,0,0,0,0,0,0,0,0,0,0,0,0,0,0,0,0,0,0,0,0,0,0,0,0,0,0,0,0,0,0,0,0,0,0,0,0,0,0,0,0,0,0,0,0,0,0,0,0,0,0,0],"id":25,"left_children":[1,3,5,7,9,11,13,15,17,19,21,23,25,27,29,31,-1,-1,33,35,37,39,41,43,45,47,49,51,53,-1,55,-1,-1,-1,-1,-1,-1,-1,-1,-1,-1,-1,-1,-1,-1,-1,-1,-1,-1,-1,-1,-1,-1,-1,-1,-1,-1],"loss_changes":[1.0023672E2,2.3414658E1,7.613271E1,8.012604E0,2.1365292E1,3.211917E1,1.4449635E1,5.7247853E0,2.182579E0,1.8646141E1,6.8832226E0,2.781473E1,9.279999E0,5.763191E0,9.50996E0,3.8442993E-1,0E0,0E0,2.0688248E0,9.583147E0,2.6358566E0,4.3090887E0,6.489641E0,1.296039E1,1.2207052E1,1.416508E0,7.7066803E0,7.528002E0,1.9148521E0,0E0,5.629038E0,0E0,0E0,0E0,0E0,0E0,0E0,0E0,0E0,0E0,0E0,0E0,0E0,0E0,0E0,0E0,0E0,0E0,0E0,0E0,0E0,0E0,0E0,0E0,0E0,0E0,0E0],"parents":[2147483647,0,0,1,1,2,2,3,3,4,4,5,5,6,6,7,7,8,8,9,9,10,10,11,11,12,12,13,13,14,14,15,15,18,18,19,19,20,20,21,21,22,22,23,23,24,24,25,25,26,26,27,27,28,28,30,30],"right_children":[2,4,6,8,10,12,14,16,18,20,22,24,26,28,30,32,-1,-1,34,36,38,40,42,44,46,48,50,52,54,-1,56,-1,-1,-1,-1,-1,-1,-1,-1,-1,-1,-1,-1,-1,-1,-1,-1,-1,-1,-1,-1,-1,-1,-1,-1,-1,-1],"split_conditions":[-1.8590951E-2,1.1198136E-1,-2.5565147E-1,-1.3018606E0,5.549531E-2,-1.315161E-1,-2.2308707E-2,1.2205547E0,-1.8934183E0,3.440127E-1,-1.0419341E0,-5.750553E-2,-9.900599E-1,-9.727803E-1,-1.3956182E-1,-5.591553E-1,-2.5935069E-2,-0E0,1.9334142E0,5.669631E-1,-1.240683E0,-8.0066815E-2,1.3040572E0,1.1505796E0,4.3467554E-1,-7.44187E-1,3.0089982E0,-5.031258E-1,6.4677113E-1,-2.481555E-2,-5.8899564E-1,4.2792056E-2,1.0725968E-2,-3.2369483E-2,4.1500065E-3,3.965823E-2,-5.039769E-3,1.1185178E-2,-3.1319957E-2,4.0356E-2,-2.1890897E-2,-2.8122563E-2,2.2135573E-2,3.600539E-2,-2.5276318E-2,-3.2148138E-2,2.8979912E-2,1.1820528E-2,-2.54547E-2,4.7138643E-2,-1.662096E-2,3.9091755E-2,-2.5028888E-2,-3.2539267E-2,4.514325E-3,-1.6544728E-2,4.490406E-2],"split_indices":[42,8,410,41,41,495,541,535,179,156,125,127,122,208,333,9,0,0,24,15,263,313,204,44,525,59,151,76,525,0,203,0,0,0,0,0,0,0,0,0,0,0,0,0,0,0,0,0,0,0,0,0,0,0,0,0,0],"split_type":[0,0,0,0,0,0,0,0,0,0,0,0,0,0,0,0,0,0,0,0,0,0,0,0,0,0,0,0,0,0,0,0,0,0,0,0,0,0,0,0,0,0,0,0,0,0,0,0,0,0,0,0,0,0,0,0,0],"sum_hessian":[8.44113E2,4.180259E2,4.2608704E2,2.3673756E2,1.8128835E2,3.0004327E2,1.26043755E2,1.3363238E1,2.2337433E2,8.2186195E1,9.910216E1,1.2193788E2,1.781054E2,9.6784805E1,2.925895E1,7.6508026E0,5.7124357E0,5.304675E0,2.1806966E2,6.0086235E1,2.2099962E1,9.100628E0,9.0001526E1,7.46903E1,4.7247578E1,7.3851695E0,1.7072023E2,1.583434E1,8.095046E1,9.437088E0,1.9821861E1,4.385623E0,3.2651796E0,2.1469406E2,3.3755872E0,4.455024E1,1.5535996E1,3.4555707E0,1.864439E1,5.9888315E0,3.1117964E0,8.425775E1,5.7437735E0,6.5977745E1,8.712551E0,3.8308826E1,8.93875E0,3.1900885E0,4.195081E0,1.6665771E2,4.0625105E0,6.328378E0,9.505961E0,7.790697E1,3.0434983E0,3.7504034E0,1.6071459E1],"tree_param":{"num_deleted":"0","num_feature":"556","num_nodes":"57","size_leaf_vector":"1"}},{"base_weights":[-7.0383316E-3,3.7637764E-1,-3.464735E-1,-3.210215E-2,7.9595953E-1,-4.9231228E-1,4.1126692E-1,3.6158115E-1,-3.2398307E-1,8.359727E-1,-2.7134884E-2,-6.061201E-1,-1.3736466E-1,-2.2087717E-1,8.7998974E-1,6.8361485E-1,-2.6881617E-1,-4.918322E-1,7.433119E-1,-8.812669E-2,8.8952005E-1,8.814494E-3,-6.2160397E-1,5.088975E-1,-5.0898445E-1,-5.4118735E-1,4.2446548E-1,-4.9618375E-3,4.857981E-2,4.216847E-2,-1.8085048E-2,-3.3494275E-2,2.8563369E-2,-3.1444386E-2,5.895784E-3,4.625019E-2,9.992267E-4,-2.8099699E-2,2.9325753E-2,4.576016E-2,-8.688637E-3,-1.549141E-3,-3.1865247E-2,3.9493337E-2,-1.820539E-2,-2.9747013E-2,2.4172245E-2,-2.4838126E-3,-3.0736877E-2,4.3576E-2,-2.2825519E-2],"categories":[],"categories_nodes":[],"categories_segments":[],"categories_sizes":[],"default_left":[0,0,0,0,0,0,0,0,0,0,0,0,0,0,0,0,0,0,0,0,0,0,0,0,0,0,0,0,0,0,0,0,0,0,0,0,0,0,0,0,0,0,0,0,0,0,0,0,0,0,0],"id":26,"left_children":[1,3,5,7,9,11,13,15,17,19,-1,21,23,25,27,29,31,33,35,37,39,-1,41,43,45,47,49,-1,-1,-1,-1,-1,-1,-1,-1,-1,-1,-1,-1,-1,-1,-1,-1,-1,-1,-1,-1,-1,-1,-1,-1],"loss_changes":[1.09628265E2,6.788904E1,4.970203E1,2.334797E1,1.1168045E1,1.4973236E1,2.1940865E1,1.7863905E1,2.1439667E1,9.611542E0,0E0,3.6464767E0,2.2806047E1,6.9963846E0,4.0191383E0,1.0147478E1,1.0757978E1,8.675898E0,2.0308714E0,4.2267385E0,5.229904E0,0E0,2.4880524E0,8.992904E0,5.5704546E0,6.9140434E-1,5.125119E0,0E0,0E0,0E0,0E0,0E0,0E0,0E0,0E0,0E0,0E0,0E0,0E0,0E0,0E0,0E0,0E0,0E0,0E0,0E0,0E0,0E0,0E0,0E0,0E0],"parents":[2147483647,0,0,1,1,2,2,3,3,4,4,5,5,6,6,7,7,8,8,9,9,11,11,12,12,13,13,14,14,15,15,16,16,17,17,18,18,19,19,20,20,22,22,23,23,24,24,25,25,26,26],"right_children":[2,4,6,8,10,12,14,16,18,20,-1,22,24,26,28,30,32,34,36,38,40,-1,42,44,46,48,50,-1,-1,-1,-1,-1,-1,-1,-1,-1,-1,-1,-1,-1,-1,-1,-1,-1,-1,-1,-1,-1,-1,-1,-1],"split_conditions":[-1.7131966E-1,-1.6242293E-1,1.0013282E-1,-2.2950248E-1,-3.6371069E-3,-5.160422E-2,-8.063007E-2,2.092377E-2,-2.0345388E-1,-9.867226E-1,-2.7134884E-2,-1.2591993E0,-1.7151222E-1,1.7155834E-1,-1.24876395E-1,3.0127785E-1,-9.220215E-2,-2.0656796E-1,-3.5510683E-1,-1.0113608E-1,2.4782207E0,8.814494E-3,-2.037856E0,-1.2363454E-1,1.9799763E0,-7.5607634E-1,1.2363586E-1,-4.9618375E-3,4.857981E-2,4.216847E-2,-1.8085048E-2,-3.3494275E-2,2.8563369E-2,-3.1444386E-2,5.895784E-3,4.625019E-2,9.992267E-4,-2.8099699E-2,2.9325753E-2,4.576016E-2,-8.688637E-3,-1.549141E-3,-3.1865247E-2,3.9493337E-2,-1.820539E-2,-2.9747013E-2,2.4172245E-2,-2.4838126E-3,-3.0736877E-2,4.3576E-2,-2.2825519E-2],"split_indices":[326,425,305,451,316,309,419,4,419,536,0,46,318,422,351,123,137,416,520,376,268,0,81,326,397,162,201,0,0,0,0,0,0,0,0,0,0,0,0,0,0,0,0,0,0,0,0,0,0,0,0],"split_type":[0,0,0,0,0,0,0,0,0,0,0,0,0,0,0,0,0,0,0,0,0,0,0,0,0,0,0,0,0,0,0,0,0,0,0,0,0,0,0,0,0,0,0,0,0,0,0,0,0,0,0],"sum_hessian":[8.393757E2,3.9393753E2,4.454381E2,2.0019073E2,1.9374681E2,3.7409515E2,7.1342964E1,8.49334E1,1.15257324E2,1.8874313E2,5.0036645E0,2.8225256E2,9.184258E1,3.0622997E1,4.0719967E1,5.6237106E1,2.86963E1,1.0037433E2,1.4882999E1,1.018243E1,1.7856071E2,5.0497303E0,2.7720285E2,3.323038E1,5.86122E1,2.0730595E1,9.892401E0,3.3793907E0,3.7340576E1,4.9116184E1,7.1209197E0,1.9709568E1,8.9867325E0,8.2048805E1,1.8325521E1,1.1450327E1,3.4326725E0,6.215419E0,3.9670117E0,1.7464523E2,3.915481E0,7.458705E0,2.6974414E2,2.5334187E1,7.8961954E0,5.458597E1,4.0262303E0,3.2024467E0,1.7528149E1,6.6483045E0,3.2440965E0],"tree_param":{"num_deleted":"0","num_feature":"556","num_nodes":"51","size_leaf_vector":"1"}},{"base_weights":[1.2089182E-2,-2.3110536E-1,6.232757E-1,-4.346795E-1,2.4578421E-1,-2.20287E-1,7.632909E-1,4.219608E-2,-5.726537E-1,6.5659213E-1,-3.5699713E-1,6.6585314E-1,-5.058643E-1,8.3762145E-1,-2.23089E-1,6.136992E-1,-4.818598E-1,-5.8805305E-1,3.0537177E-2,8.542878E-1,-1.1949849E-2,6.6540116E-1,-4.909523E-1,4.0845156E-2,1.1970877E-2,6.004754E-3,-2.9790211E-2,9.060951E-1,2.0126934E-1,3.031646E-2,-2.928806E-2,-3.280012E-4,5.0031226E-2,-2.9802958E-2,2.385614E-2,-9.172706E-3,-3.0903071E-2,-2.7912694E-3,4.7060408E-2,-2.5142191E-2,2.751832E-2,1.2482057E-2,4.039451E-2,-2.8738866E-2,1.4541364E-2,-3.1310895E-3,4.627194E-2,3.9911866E-2,-2.2416737E-2],"categories":[],"categories_nodes":[],"categories_segments":[],"categories_sizes":[],"default_left":[0,0,0,0,0,0,0,0,0,0,0,0,0,0,0,0,0,0,0,0,0,0,0,0,0,0,0,0,0,0,0,0,0,0,0,0,0,0,0,0,0,0,0,0,0,0,0,0,0],"id":27,"left_children":[1,3,5,7,9,11,13,15,17,19,21,23,25,27,29,31,33,35,-1,37,39,41,43,-1,-1,-1,-1,45,47,-1,-1,-1,-1,-1,-1,-1,-1,-1,-1,-1,-1,-1,-1,-1,-1,-1,-1,-1,-1],"loss_changes":[1.2484821E2,5.8488136E1,2.8549515E1,2.7830238E1,4.507747E1,9.372217E0,1.5410049E1,2.916277E1,6.500473E0,1.436948E1,1.0611165E1,1.8828344E-1,1.7022424E0,7.961197E0,5.190871E0,1.1292688E1,5.9961357E0,3.6825256E0,0E0,6.7699394E0,7.5886602E0,1.3235998E-1,4.630657E0,0E0,0E0,0E0,0E0,3.4028168E0,8.590211E0,0E0,0E0,0E0,0E0,0E0,0E0,0E0,0E0,0E0,0E0,0E0,0E0,0E0,0E0,0E0,0E0,0E0,0E0,0E0,0E0],"parents":[2147483647,0,0,1,1,2,2,3,3,4,4,5,5,6,6,7,7,8,8,9,9,10,10,11,11,12,12,13,13,14,14,15,15,16,16,17,17,19,19,20,20,21,21,22,22,27,27,28,28],"right_children":[2,4,6,8,10,12,14,16,18,20,22,24,26,28,30,32,34,36,-1,38,40,42,44,-1,-1,-1,-1,46,48,-1,-1,-1,-1,-1,-1,-1,-1,-1,-1,-1,-1,-1,-1,-1,-1,-1,-1,-1,-1],"split_conditions":[5.2615845E-1,-2.313023E-1,-2.7103338E-1,-8.597776E-1,5.0362665E-2,-9.533968E-1,1.0130664E0,-1.9453362E-1,2.3287935E0,-1.22842304E-1,-1.1083046E0,-2.1920614E-1,-1.4907071E-1,1.6074244E0,-8.065788E-1,-5.8647907E-1,1.0328891E0,-1.4620467E-1,3.0537177E-2,-5.795898E-2,4.3066305E-1,-4.3703514E-1,7.8113943E-1,4.0845156E-2,1.1970877E-2,6.004754E-3,-2.9790211E-2,-1.6485097E0,2.2997914E-1,3.031646E-2,-2.928806E-2,-3.280012E-4,5.0031226E-2,-2.9802958E-2,2.385614E-2,-9.172706E-3,-3.0903071E-2,-2.7912694E-3,4.7060408E-2,-2.5142191E-2,